{"learner":{"attributes":{"scikit_learn":"{\"_estimator_type\": \"regressor\"}"},"feature_names":["ndvi","ndwi","albedo","building_density","building_height","air_temp","humidity","wind_speed","svf","lulc_water","lulc_vegetation","lulc_built_up","lulc_road","lulc_bare","ndvi_x_albedo","bldg_density_x_wind"],"feature_types":["float","float","float","int","float","float","float","float","float","float","float","float","float","float","float","float"],"gradient_booster":{"model":{"cats":{"enc":[],"feature_segments":[],"sorted_idx":[]},"gbtree_model_param":{"num_parallel_tree":"1","num_trees":"200"},"iteration_indptr":[0,1,2,3,4,5,6,7,8,9,10,11,12,13,14,15,16,17,18,19,20,21,22,23,24,25,26,27,28,29,30,31,32,33,34,35,36,37,38,39,40,41,42,43,44,45,46,47,48,49,50,51,52,53,54,55,56,57,58,59,60,61,62,63,64,65,66,67,68,69,70,71,72,73,74,75,76,77,78,79,80,81,82,83,84,85,86,87,88,89,90,91,92,93,94,95,96,97,98,99,100,101,102,103,104,105,106,107,108,109,110,111,112,113,114,115,116,117,118,119,120,121,122,123,124,125,126,127,128,129,130,131,132,133,134,135,136,137,138,139,140,141,142,143,144,145,146,147,148,149,150,151,152,153,154,155,156,157,158,159,160,161,162,163,164,165,166,167,168,169,170,171,172,173,174,175,176,177,178,179,180,181,182,183,184,185,186,187,188,189,190,191,192,193,194,195,196,197,198,199,200],"tree_info":[0,0,0,0,0,0,0,0,0,0,0,0,0,0,0,0,0,0,0,0,0,0,0,0,0,0,0,0,0,0,0,0,0,0,0,0,0,0,0,0,0,0,0,0,0,0,0,0,0,0,0,0,0,0,0,0,0,0,0,0,0,0,0,0,0,0,0,0,0,0,0,0,0,0,0,0,0,0,0,0,0,0,0,0,0,0,0,0,0,0,0,0,0,0,0,0,0,0,0,0,0,0,0,0,0,0,0,0,0,0,0,0,0,0,0,0,0,0,0,0,0,0,0,0,0,0,0,0,0,0,0,0,0,0,0,0,0,0,0,0,0,0,0,0,0,0,0,0,0,0,0,0,0,0,0,0,0,0,0,0,0,0,0,0,0,0,0,0,0,0,0,0,0,0,0,0,0,0,0,0,0,0,0,0,0,0,0,0,0,0,0,0,0,0,0,0,0,0,0,0],"trees":[{"base_weights":[-3.6867622E-2,-8.555271E0,6.9624095E0,-1.0225998E1,-4.7393246E0,2.2112973E0,8.07593E0,-9.330563E-1,-1.4286379E0,-6.443358E-1,-2.3525798E0,3.8236003E0,9.911481E-1,5.572831E-1,8.230117E-1,-2.7634273E0,-1.189207E0,2.0626416E0,4.12937E0,-4.6932307E-1,1.44985E0,-3.0684757E0,-1.6605047E0,-1.5080047E0,-4.5852423E-1,2.4343331E-1,4.744811E-2,1.1133607E-1,4.1768083E-1,-7.7467126E-1,3.3737725E-1,1.6022509E0,7.3934935E-2,-4.566395E-2,-3.1307545E-1,-2.6163882E-2,-1.7547981E-1,-4.774581E-2,-1.7873582E-1,-8.08852E-2,-1.366227E-2,-9.269499E-2,-0E0,-1.6638946E-3,4.5504104E-2,1.7651011E-1,8.620501E-2,-4.566395E-2,2.9137773E-2],"categories":[],"categories_nodes":[],"categories_segments":[],"categories_sizes":[],"default_left":[0,0,0,0,0,0,0,0,0,0,0,0,0,0,0,0,0,0,0,0,0,0,0,0,0,0,0,0,0,0,0,0,0,0,0,0,0,0,0,0,0,0,0,0,0,0,0,0,0],"id":0,"left_children":[1,3,5,7,9,11,13,-1,-1,-1,15,17,19,-1,-1,21,23,25,27,29,31,33,35,37,39,-1,-1,-1,-1,41,43,45,47,-1,-1,-1,-1,-1,-1,-1,-1,-1,-1,-1,-1,-1,-1,-1,-1],"loss_changes":[6.212692E4,2.9464805E3,3.0072578E3,1.0496133E3,5.736904E2,2.1212622E2,1.3144727E2,0E0,0E0,0E0,2.5952515E1,1.6170471E1,4.365343E1,0E0,0E0,9.571899E0,3.3048115E0,3.866825E0,4.0057373E-1,4.246278E0,9.98877E0,3.742157E0,9.220772E-1,2.374771E0,5.8434224E-1,0E0,0E0,0E0,0E0,1.3909745E0,2.5968605E-1,3.5195236E0,8.087458E-1,0E0,0E0,0E0,0E0,0E0,0E0,0E0,0E0,0E0,0E0,0E0,0E0,0E0,0E0,0E0,0E0],"parents":[2147483647,0,0,1,1,2,2,3,3,4,4,5,5,6,6,10,10,11,11,12,12,15,15,16,16,17,17,18,18,19,19,20,20,21,21,22,22,23,23,24,24,29,29,30,30,31,31,32,32],"right_children":[2,4,6,8,10,12,14,-1,-1,-1,16,18,20,-1,-1,22,24,26,28,30,32,34,36,38,40,-1,-1,-1,-1,42,44,46,48,-1,-1,-1,-1,-1,-1,-1,-1,-1,-1,-1,-1,-1,-1,-1,-1],"split_conditions":[1.05E2,2.16015E1,1.95E2,2.5705817E-1,6E1,3.542674E-1,2.25E2,-9.330563E-1,-1.4286379E0,-6.443358E-1,2.4435396E1,2.4876972E1,1.2E2,5.572831E-1,8.230117E-1,9E1,1.3187559E1,1.2984322E-1,1.35E2,8.550028E1,-9.982933E-2,9.734483E-2,1.2801185E-1,8.5054276E1,8.554512E1,2.4343331E-1,4.744811E-2,1.1133607E-1,4.1768083E-1,2.5013636E1,1.347388E-1,2.209652E-2,-8.2968354E-2,-4.566395E-2,-3.1307545E-1,-2.6163882E-2,-1.7547981E-1,-4.774581E-2,-1.7873582E-1,-8.08852E-2,-1.366227E-2,-9.269499E-2,-0E0,-1.6638946E-3,4.5504104E-2,1.7651011E-1,8.620501E-2,-4.566395E-2,2.9137773E-2],"split_indices":[3,15,3,0,3,8,3,0,0,0,5,5,3,0,0,3,4,0,3,6,1,2,2,6,6,0,0,0,0,5,2,14,1,0,0,0,0,0,0,0,0,0,0,0,0,0,0,0,0],"split_type":[0,0,0,0,0,0,0,0,0,0,0,0,0,0,0,0,0,0,0,0,0,0,0,0,0,0,0,0,0,0,0,0,0,0,0,0,0,0,0,0,0,0,0,0,0,0,0,0,0],"sum_hessian":[1.04E3,4.69E2,5.71E2,3.25E2,1.44E2,1.09E2,4.62E2,2.69E2,5.6E1,8.3E1,6.1E1,4.6E1,6.3E1,2.9E1,4.33E2,4.4E1,1.7E1,8E0,3.8E1,1.5E1,4.8E1,3.3E1,1.1E1,1.1E1,6E0,6E0,2E0,1E0,3.7E1,1.1E1,4E0,4.3E1,5E0,1E0,3.2E1,1E0,1E1,3E0,8E0,2E0,4E0,9E0,2E0,1E0,3E0,3.4E1,9E0,1E0,4E0],"tree_param":{"num_deleted":"0","num_feature":"16","num_nodes":"49","size_leaf_vector":"1"}},{"base_weights":[3.3197157E-2,-7.7433686E0,6.3091397E0,-9.229402E0,-4.019594E0,2.254313E0,7.262766E0,-8.40744E-1,-1.2988067E0,-5.647038E-1,-2.0044634E0,9.055577E-1,3.5847857E0,5.0344567E0,7.4225783E-1,-2.5299678E0,-1.0847288E0,-4.8425058E-1,1.2582719E0,3.8006547E-1,1.8289736E-1,5.104306E-1,1.3147195E-1,-1.5653129E0,-2.964976E0,-6.504898E-3,-1.1699247E0,-9.238511E-1,6.0091317E-2,1.4105625E0,2.1575743E-1,-1.9423965E-1,-1.1200486E-2,-3.0472583E-1,-4.4510096E-2,-6.2571235E-2,-1.3286474E-1,-1.00550964E-1,-8.529111E-3,1.1183596E-1,2.0435917E-1,7.250552E-2,-1.1297272E-2],"categories":[],"categories_nodes":[],"categories_segments":[],"categories_sizes":[],"default_left":[0,0,0,0,0,0,0,0,0,0,0,0,0,0,0,0,0,0,0,0,0,0,0,0,0,0,0,0,0,0,0,0,0,0,0,0,0,0,0,0,0,0,0],"id":1,"left_children":[1,3,5,7,9,11,13,-1,-1,-1,15,17,19,21,-1,23,25,27,29,-1,-1,-1,-1,31,33,-1,35,37,-1,39,41,-1,-1,-1,-1,-1,-1,-1,-1,-1,-1,-1,-1],"loss_changes":[5.0269344E4,2.5070586E3,2.186746E3,9.0200977E2,4.2409082E2,1.9369775E2,1.25552734E2,0E0,0E0,0E0,2.637703E1,2.8138214E1,1.3332153E1,1.4812622E0,0E0,1.0851898E1,1.8853416E0,6.3119087E0,6.6774597E0,0E0,0E0,0E0,0E0,7.249256E0,3.4779358E0,0E0,8.735485E-1,4.2143965E-1,0E0,4.612274E0,1.3150704E0,0E0,0E0,0E0,0E0,0E0,0E0,0E0,0E0,0E0,0E0,0E0,0E0],"parents":[2147483647,0,0,1,1,2,2,3,3,4,4,5,5,6,6,10,10,11,11,12,12,13,13,15,15,16,16,17,17,18,18,23,23,24,24,26,26,27,27,29,29,30,30],"right_children":[2,4,6,8,10,12,14,-1,-1,-1,16,18,20,22,-1,24,26,28,30,-1,-1,-1,-1,32,34,-1,36,38,-1,40,42,-1,-1,-1,-1,-1,-1,-1,-1,-1,-1,-1,-1],"split_conditions":[1.05E2,2.7072533E1,1.95E2,5.5E-1,6E1,1.5E2,2.25E2,-8.40744E-1,-1.2988067E0,-5.647038E-1,9E1,1.2E2,3.672677E-1,2.7090674E-2,7.4225783E-1,1.634312E-2,4.8750138E-1,8.550028E1,-9.982933E-2,3.8006547E-1,1.8289736E-1,5.104306E-1,1.3147195E-1,8.807761E1,1.4480144E2,-6.504898E-3,8.454896E1,1.296627E-1,6.0091317E-2,1.2852893E1,8.325186E1,-1.9423965E-1,-1.1200486E-2,-3.0472583E-1,-4.4510096E-2,-6.2571235E-2,-1.3286474E-1,-1.00550964E-1,-8.529111E-3,1.1183596E-1,2.0435917E-1,7.250552E-2,-1.1297272E-2],"split_indices":[3,15,3,0,3,3,3,0,0,0,3,3,8,14,0,14,8,6,1,0,0,0,0,6,15,0,6,0,0,4,6,0,0,0,0,0,0,0,0,0,0,0,0],"split_type":[0,0,0,0,0,0,0,0,0,0,0,0,0,0,0,0,0,0,0,0,0,0,0,0,0,0,0,0,0,0,0,0,0,0,0,0,0,0,0,0,0,0,0],"sum_hessian":[1.028E3,4.59E2,5.69E2,3.27E2,1.32E2,1.09E2,4.6E2,2.71E2,5.6E1,7.2E1,6E1,5.5E1,5.4E1,3.3E1,4.27E2,3.7E1,2.3E1,1.1E1,4.4E1,4.7E1,7E0,3.2E1,1E0,1.3E1,2.4E1,2E0,2.1E1,8E0,3E0,3.8E1,6E0,1E1,3E0,2.3E1,1E0,6E0,1.5E1,7E0,1E0,2.8E1,1E1,2E0,4E0],"tree_param":{"num_deleted":"0","num_feature":"16","num_nodes":"43","size_leaf_vector":"1"}},{"base_weights":[-6.974128E-3,-6.7055807E0,5.7967515E0,-8.134053E0,-2.6953428E0,2.6581974E0,6.6471887E0,-7.424239E0,-1.166387E0,-4.800016E-1,-1.5370835E0,1.4220734E0,3.8112984E0,5.4490817E-1,6.7231315E-1,-7.619702E-1,-5.749261E-1,-2.0504794E0,-8.3199203E-1,2.3311481E0,1.0995586E0,2.845703E-1,4.0516782E-1,-2.149353E0,1.4870274E-2,-1.0558178E0,-3.1264865E-1,2.5722986E-1,9.9991E-2,1.2673774E0,1.1052017E-1,-3.9019834E-2,-2.2581546E-1,-5.7359245E-2,-1.4210401E-1,1.2059276E-3,-5.2959856E-2,1.4026317E-1,5.3853136E-2,-4.608785E-2,3.9446615E-2],"categories":[],"categories_nodes":[],"categories_segments":[],"categories_sizes":[],"default_left":[0,0,0,0,0,0,0,0,0,0,0,0,0,0,0,0,0,0,0,0,0,0,0,0,0,0,0,0,0,0,0,0,0,0,0,0,0,0,0,0,0],"id":2,"left_children":[1,3,5,7,9,11,13,15,-1,-1,17,19,21,-1,-1,-1,-1,23,25,27,29,-1,-1,31,-1,33,35,-1,-1,37,39,-1,-1,-1,-1,-1,-1,-1,-1,-1,-1],"loss_changes":[4.1287324E4,2.8011543E3,1.5001406E3,8.2099414E2,3.113344E2,1.6937787E2,2.8203125E0,5.471289E1,0E0,0E0,2.9136993E1,1.4978294E1,2.4033203E0,0E0,0E0,0E0,0E0,1.1174301E1,3.950266E0,1.8861465E0,7.523159E0,0E0,0E0,7.849777E0,0E0,3.5645466E0,9.739301E-1,0E0,0E0,2.9937134E0,1.4731306E0,0E0,0E0,0E0,0E0,0E0,0E0,0E0,0E0,0E0,0E0],"parents":[2147483647,0,0,1,1,2,2,3,3,4,4,5,5,6,6,7,7,10,10,11,11,12,12,17,17,18,18,19,19,20,20,23,23,25,25,26,26,29,29,30,30],"right_children":[2,4,6,8,10,12,14,16,-1,-1,18,20,22,-1,-1,-1,-1,24,26,28,30,-1,-1,32,-1,34,36,-1,-1,38,40,-1,-1,-1,-1,-1,-1,-1,-1,-1,-1],"split_conditions":[1.2E2,3E1,2.1E2,5.5E-1,6E1,1.65E2,2.4E2,1.5E1,-1.166387E0,-4.800016E-1,9E1,3.542674E-1,1.8E2,5.4490817E-1,6.7231315E-1,-7.619702E-1,-5.749261E-1,6.979934E-1,2.4759523E1,1.8481933E-2,-9.982933E-2,2.845703E-1,4.0516782E-1,1.19861495E-2,1.4870274E-2,1.2998354E0,2.496476E1,2.5722986E-1,9.9991E-2,2.209652E-2,-8.2968354E-2,-3.9019834E-2,-2.2581546E-1,-5.7359245E-2,-1.4210401E-1,1.2059276E-3,-5.2959856E-2,1.4026317E-1,5.3853136E-2,-4.608785E-2,3.9446615E-2],"split_indices":[3,3,3,0,3,3,3,3,0,0,3,8,3,0,0,0,0,8,5,14,1,0,0,14,0,7,5,0,0,14,1,0,0,0,0,0,0,0,0,0,0],"split_type":[0,0,0,0,0,0,0,0,0,0,0,0,0,0,0,0,0,0,0,0,0,0,0,0,0,0,0,0,0,0,0,0,0,0,0,0,0,0,0,0,0],"sum_hessian":[1.06E3,4.92E2,5.68E2,3.62E2,1.3E2,1.22E2,4.46E2,3.04E2,5.8E1,4.5E1,8.5E1,6E1,6.2E1,3.1E1,4.15E2,2.69E2,3.5E1,4.8E1,3.7E1,1.4E1,4.6E1,1.5E1,4.7E1,4.6E1,2E0,2.5E1,1.2E1,1.1E1,3E0,3.9E1,7E0,3E0,4.3E1,1.2E1,1.3E1,5E0,7E0,3.2E1,7E0,2E0,5E0],"tree_param":{"num_deleted":"0","num_feature":"16","num_nodes":"41","size_leaf_vector":"1"}},{"base_weights":[1.4017384E-2,-6.2471414E0,5.090778E0,-7.29157E0,-2.8679407E0,1.7016269E0,5.8953E0,-6.673793E0,-1.0521735E0,-4.257742E0,-1.6516324E0,6.718729E-1,2.8916812E0,4.512936E0,6.056835E-1,-5.580239E-1,-6.9633156E-1,-1.0271189E-1,-4.298194E0,-1.9631298E0,-9.303934E-1,-2.9347456E-1,1.0088736E0,1.8858725E0,3.1689224E-1,4.6099296E-1,2.123036E-1,-1.7628245E-1,-4.3623524E0,-2.0714865E0,1.3878963E-2,-4.0680066E-1,-1.0623411E0,-6.116324E-1,3.7508684E-1,1.4288118E0,6.108923E-1,2.1603131E-1,9.3981676E-2,-1.1921189E-1,-4.400681E-1,-3.855967E-2,-2.1454914E-1,-5.0026514E-3,-7.1356595E-2,-2.5116156E-3,-1.12314835E-1,1.9511623E-2,-7.118019E-2,-1.7173004E-3,4.7697343E-2,-0E0,1.498845E-1,-4.301537E-2,7.1973585E-2],"categories":[],"categories_nodes":[],"categories_segments":[],"categories_sizes":[],"default_left":[0,0,0,0,0,0,0,0,0,0,0,0,0,0,0,0,0,0,0,0,0,0,0,0,0,0,0,0,0,0,0,0,0,0,0,0,0,0,0,0,0,0,0,0,0,0,0,0,0,0,0,0,0,0,0],"id":3,"left_children":[1,3,5,7,9,11,13,15,-1,17,19,21,23,25,-1,-1,-1,-1,27,29,31,33,35,37,-1,-1,-1,-1,39,41,-1,43,45,47,49,51,53,-1,-1,-1,-1,-1,-1,-1,-1,-1,-1,-1,-1,-1,-1,-1,-1,-1,-1],"loss_changes":[3.4074926E4,1.6721543E3,1.6033838E3,6.584219E2,1.8677582E2,1.3862906E2,7.83457E1,5.803711E1,0E0,1.979065E0,1.2037994E1,2.0862951E1,8.297424E0,2.057129E0,0E0,0E0,0E0,0E0,1.5594482E-1,1.02743225E1,8.71748E-1,3.8691068E0,6.778179E0,1.2945976E0,0E0,0E0,0E0,0E0,2.7020264E-1,4.034912E0,0E0,5.446191E-1,8.660965E-1,1.1602926E0,2.939672E-1,2.2641907E0,3.284645E0,0E0,0E0,0E0,0E0,0E0,0E0,0E0,0E0,0E0,0E0,0E0,0E0,0E0,0E0,0E0,0E0,0E0,0E0],"parents":[2147483647,0,0,1,1,2,2,3,3,4,4,5,5,6,6,7,7,9,9,10,10,11,11,12,12,13,13,18,18,19,19,20,20,21,21,22,22,23,23,28,28,29,29,31,31,32,32,33,33,34,34,35,35,36,36],"right_children":[2,4,6,8,10,12,14,16,-1,18,20,22,24,26,-1,-1,-1,-1,28,30,32,34,36,38,-1,-1,-1,-1,40,42,-1,44,46,48,50,52,54,-1,-1,-1,-1,-1,-1,-1,-1,-1,-1,-1,-1,-1,-1,-1,-1,-1,-1],"split_conditions":[1.05E2,3E1,1.95E2,2.946518E-1,6E1,1.5E2,2.4E2,-3.9606825E-2,-1.0521735E0,8.10378E1,9E1,1.2E2,1.65E2,2.7090674E-2,6.056835E-1,-5.580239E-1,-6.9633156E-1,-1.0271189E-1,3.861582E1,6.979934E-1,1.5295723E-2,8.550028E1,-1.5110204E-1,1.1388792E-1,3.1689224E-1,4.6099296E-1,2.123036E-1,-1.7628245E-1,6.154135E-1,1.1218992E-2,1.3878963E-2,-1.5890093E-1,4.8750138E-1,4.8241657E-1,1.5118977E-2,8.175033E0,6.4533076E0,2.1603131E-1,9.3981676E-2,-1.1921189E-1,-4.400681E-1,-3.855967E-2,-2.1454914E-1,-5.0026514E-3,-7.1356595E-2,-2.5116156E-3,-1.12314835E-1,1.9511623E-2,-7.118019E-2,-1.7173004E-3,4.7697343E-2,-0E0,1.498845E-1,-4.301537E-2,7.1973585E-2],"split_indices":[3,3,3,0,3,3,3,1,0,6,3,3,3,14,0,0,0,0,15,8,14,6,1,0,0,0,0,0,8,14,0,1,8,8,14,4,4,0,0,0,0,0,0,0,0,0,0,0,0,0,0,0,0,0,0],"split_type":[0,0,0,0,0,0,0,0,0,0,0,0,0,0,0,0,0,0,0,0,0,0,0,0,0,0,0,0,0,0,0,0,0,0,0,0,0,0,0,0,0,0,0,0,0,0,0,0,0,0,0,0,0,0,0],"sum_hessian":[1.07E3,4.79E2,5.91E2,3.65E2,1.14E2,1.14E2,4.77E2,3.09E2,5.6E1,5.2E1,6.2E1,6.2E1,5.2E1,5.3E1,4.24E2,6.9E1,2.4E2,1E0,5.1E1,4.2E1,2E1,1.6E1,4.6E1,1.3E1,3.9E1,5E1,3E0,2E0,4.9E1,4E1,2E0,5E0,1.5E1,1.1E1,5E0,2.1E1,2.5E1,9E0,4E0,1E0,4.8E1,2E0,3.8E1,3E0,2E0,1E0,1.4E1,1E0,1E1,1E0,4E0,1E0,2E1,2E0,2.3E1],"tree_param":{"num_deleted":"0","num_feature":"16","num_nodes":"55","size_leaf_vector":"1"}},{"base_weights":[-9.695613E-2,-5.589709E0,4.5529876E0,-6.537275E0,-2.5245013E0,1.6107547E0,5.27347E0,-6.0026917E0,-9.4491386E-1,-3.8743174E0,-1.3472829E0,6.044844E-1,2.5528305E0,4.2322645E-1,5.423676E0,-6.135394E-1,-4.5474505E0,-9.757625E-2,-3.9093712E-1,-2.1441138E0,-1.0040169E0,-2.4272962E-1,8.685893E-1,2.7176628E0,1.342336E0,5.4342383E-1,2.2023045E-1,-1.2206443E-1,-4.6166283E-1,-2.562742E-1,-5.231316E-1,-4.928026E-1,-1.209148E0,-4.683552E-1,4.1342315E-1,6.9452244E-1,1.8095809E-1,5.6795042E-2,2.7479026E0,1.4222442E-1,3.0153578E-2,-6.472607E-3,-5.9655156E-2,-7.133023E-2,-2.6502672E-3,-1.5983652E-1,-8.5345395E-2,-5.482142E-2,-3.932648E-3,5.9544068E-2,-1.6314697E-3,-4.0147733E-2,7.693413E-2,2.7989587E-1,9.987228E-2],"categories":[],"categories_nodes":[],"categories_segments":[],"categories_sizes":[],"default_left":[0,0,0,0,0,0,0,0,0,0,0,0,0,0,0,0,0,0,0,0,0,0,0,0,0,0,0,0,0,0,0,0,0,0,0,0,0,0,0,0,0,0,0,0,0,0,0,0,0,0,0,0,0,0,0],"id":4,"left_children":[1,3,5,7,9,11,13,15,-1,17,19,21,23,-1,25,-1,27,-1,-1,29,31,33,35,37,39,-1,-1,-1,-1,-1,41,43,45,47,49,51,-1,-1,53,-1,-1,-1,-1,-1,-1,-1,-1,-1,-1,-1,-1,-1,-1,-1,-1],"loss_changes":[2.6741432E4,1.3767422E3,1.1927588E3,5.1146387E2,1.7699622E2,1.0526318E2,4.7240234E1,3.1282227E1,0E0,1.0820312E0,1.4764534E1,1.2803608E1,7.5186462E0,0E0,6.748047E-1,0E0,6.852417E-1,0E0,0E0,1.0565353E1,4.057766E0,2.27175E0,5.5359993E0,1.3580933E0,1.4727974E-1,0E0,0E0,0E0,0E0,0E0,6.354022E-2,1.4494E0,2.820839E0,2.965665E-1,3.805064E-1,3.461712E0,0E0,0E0,1.2008667E0,0E0,0E0,0E0,0E0,0E0,0E0,0E0,0E0,0E0,0E0,0E0,0E0,0E0,0E0,0E0,0E0],"parents":[2147483647,0,0,1,1,2,2,3,3,4,4,5,5,6,6,7,7,9,9,10,10,11,11,12,12,14,14,16,16,19,19,20,20,21,21,22,22,23,23,24,24,30,30,31,31,32,32,33,33,34,34,35,35,38,38],"right_children":[2,4,6,8,10,12,14,16,-1,18,20,22,24,-1,26,-1,28,-1,-1,30,32,34,36,38,40,-1,-1,-1,-1,-1,42,44,46,48,50,52,-1,-1,54,-1,-1,-1,-1,-1,-1,-1,-1,-1,-1,-1,-1,-1,-1,-1,-1],"split_conditions":[1.05E2,3E1,1.95E2,1E0,6E1,1.5E2,2.5E2,6.841414E0,-9.4491386E-1,8.10378E1,7.5E1,1.2E2,3.672677E-1,4.2322645E-1,2.9244741E-2,-6.135394E-1,1.1026537E-2,-9.757625E-2,-3.9093712E-1,2.4435396E1,1.6017262E-2,8.70356E1,2.5296774E1,2.4060928E1,1.9538092E2,5.4342383E-1,2.2023045E-1,-1.2206443E-1,-4.6166283E-1,-2.562742E-1,8.687476E0,8.6447365E1,9E1,2.3232948E-2,2.4707363E1,6.4533076E0,1.8095809E-1,5.6795042E-2,8.534897E1,1.4222442E-1,3.0153578E-2,-6.472607E-3,-5.9655156E-2,-7.133023E-2,-2.6502672E-3,-1.5983652E-1,-8.5345395E-2,-5.482142E-2,-3.932648E-3,5.9544068E-2,-1.6314697E-3,-4.0147733E-2,7.693413E-2,2.7989587E-1,9.987228E-2],"split_indices":[3,3,3,10,3,3,3,4,0,6,3,3,8,0,14,0,14,0,0,5,14,6,5,5,15,0,0,0,0,0,4,6,3,14,5,4,0,0,6,0,0,0,0,0,0,0,0,0,0,0,0,0,0,0,0],"split_type":[0,0,0,0,0,0,0,0,0,0,0,0,0,0,0,0,0,0,0,0,0,0,0,0,0,0,0,0,0,0,0,0,0,0,0,0,0,0,0,0,0,0,0,0,0,0,0,0,0,0,0,0,0,0,0],"sum_hessian":[1.045E3,4.79E2,5.66E2,3.65E2,1.14E2,1.12E2,4.54E2,3.11E2,5.4E1,5.2E1,6.2E1,5.5E1,5.7E1,6.1E1,3.93E2,2.82E2,2.9E1,1E0,5.1E1,1.7E1,4.5E1,1.3E1,4.2E1,4.9E1,8E0,3.91E2,2E0,1E0,2.8E1,1.3E1,4E0,1.4E1,3.1E1,1E1,3E0,3.7E1,5E0,1E0,4.8E1,7E0,1E0,1E0,3E0,9E0,5E0,1.3E1,1.8E1,8E0,2E0,2E0,1E0,2E0,3.5E1,4.6E1,2E0],"tree_param":{"num_deleted":"0","num_feature":"16","num_nodes":"55","size_leaf_vector":"1"}},{"base_weights":[4.3855056E-2,-5.0084696E0,4.156723E0,-5.8506327E0,-2.370684E0,1.7645617E0,4.8805056E0,-5.370139E0,-8.508274E-1,-3.5844755E0,-1.2932382E0,6.055649E-1,2.5876162E0,5.1159304E-1,4.5911905E-1,-4.560012E0,-5.6194705E-1,-2.9947132E-1,-4.219178E0,-8.699555E-1,-1.7725831E0,-2.9558718E-1,9.0816295E-1,1.9897187E0,2.8988266E-1,-3.5593903E-1,-4.8520303E-1,-1.01661615E-1,-4.313994E-1,-1.3042605E0,-6.400631E-1,-1.9415658E0,-2.4829587E-1,-0E0,-5.431374E-1,1.4018736E0,6.1803114E-1,2.3848636E0,1.3606343E0,-1.5942864E-1,-3.731433E-2,-8.347118E-2,-3.513011E-2,-2.3459847E-1,-1.090339E-1,1.0309811E-2,-4.3312658E-2,4.0661443E-2,-2.1809204E-2,-6.356948E-2,2.3824685E-4,1.4803891E-1,1.0132904E-2,-2.023016E-2,7.243119E-2,2.8134504E-1,1.3563895E-1,2.5381012E-2,1.4185585E-1],"categories":[],"categories_nodes":[],"categories_segments":[],"categories_sizes":[],"default_left":[0,0,0,0,0,0,0,0,0,0,0,0,0,0,0,0,0,0,0,0,0,0,0,0,0,0,0,0,0,0,0,0,0,0,0,0,0,0,0,0,0,0,0,0,0,0,0,0,0,0,0,0,0,0,0,0,0,0,0],"id":5,"left_children":[1,3,5,7,9,11,13,15,-1,17,19,21,23,-1,-1,25,-1,-1,27,29,31,33,35,37,-1,-1,-1,-1,-1,39,41,43,45,47,49,51,53,55,57,-1,-1,-1,-1,-1,-1,-1,-1,-1,-1,-1,-1,-1,-1,-1,-1,-1,-1,-1,-1],"loss_changes":[2.1486006E4,1.0160586E3,9.77624E2,4.011416E2,1.4396521E2,1.2593869E2,5.3046875E0,3.3953125E1,0E0,6.482483E0,1.0773384E1,1.587285E1,8.256897E0,0E0,0E0,4.095703E0,0E0,0E0,2.065277E0,2.4652767E0,6.511116E0,1.0494088E0,5.0909767E0,3.8379135E0,0E0,0E0,0E0,0E0,0E0,2.1788902E0,9.9334335E-1,5.7047577E0,3.3745092E-1,7.8139067E-1,4.6878147E-1,1.2235126E0,2.7271118E0,3.260315E0,3.7028313E-1,0E0,0E0,0E0,0E0,0E0,0E0,0E0,0E0,0E0,0E0,0E0,0E0,0E0,0E0,0E0,0E0,0E0,0E0,0E0,0E0],"parents":[2147483647,0,0,1,1,2,2,3,3,4,4,5,5,6,6,7,7,9,9,10,10,11,11,12,12,15,15,18,18,19,19,20,20,21,21,22,22,23,23,29,29,30,30,31,31,32,32,33,33,34,34,35,35,36,36,37,37,38,38],"right_children":[2,4,6,8,10,12,14,16,-1,18,20,22,24,-1,-1,26,-1,-1,28,30,32,34,36,38,-1,-1,-1,-1,-1,40,42,44,46,48,50,52,54,56,58,-1,-1,-1,-1,-1,-1,-1,-1,-1,-1,-1,-1,-1,-1,-1,-1,-1,-1,-1,-1],"split_conditions":[1.05E2,3E1,2.1E2,5.5E-1,6E1,1.5E2,-1.4667304E-1,3.3369768E-1,-8.508274E-1,2.130755E-1,1.8247139E-2,1.2E2,1.8E2,5.1159304E-1,4.5911905E-1,1.620903E-2,-5.6194705E-1,-2.9947132E-1,-2.102929E-1,7.5E1,1.4953958E1,1.4851178E-1,1.13318935E-1,1.7136002E-2,2.8988266E-1,-3.5593903E-1,-4.8520303E-1,-1.01661615E-1,-4.313994E-1,1.6554272E-2,1.3669243E1,9E1,1.3386633E-1,-1.6665292E-1,5.874522E-1,1.6649778E-1,1.1388792E-1,9.464661E-1,1.7580241E-2,-1.5942864E-1,-3.731433E-2,-8.347118E-2,-3.513011E-2,-2.3459847E-1,-1.090339E-1,1.0309811E-2,-4.3312658E-2,4.0661443E-2,-2.1809204E-2,-6.356948E-2,2.3824685E-4,1.4803891E-1,1.0132904E-2,-2.023016E-2,7.243119E-2,2.8134504E-1,1.3563895E-1,2.5381012E-2,1.4185585E-1],"split_indices":[3,3,3,0,3,3,1,1,0,0,14,3,3,0,0,14,0,0,1,3,4,2,0,14,0,0,0,0,0,14,4,3,0,1,8,2,0,7,14,0,0,0,0,0,0,0,0,0,0,0,0,0,0,0,0,0,0,0,0],"split_type":[0,0,0,0,0,0,0,0,0,0,0,0,0,0,0,0,0,0,0,0,0,0,0,0,0,0,0,0,0,0,0,0,0,0,0,0,0,0,0,0,0,0,0,0,0,0,0,0,0,0,0,0,0,0,0,0,0,0,0],"sum_hessian":[1.032E3,4.63E2,5.69E2,3.5E2,1.13E2,1.33E2,4.36E2,2.99E2,5.1E1,5.2E1,6.1E1,5.6E1,7.7E1,2.31E2,2.05E2,7.5E1,2.24E2,3E1,2.2E1,3.4E1,2.7E1,1.4E1,4.2E1,2.9E1,4.8E1,2E1,5.5E1,1E0,2.1E1,1E1,2.4E1,2.4E1,3E0,7E0,7E0,1.4E1,2.8E1,1.6E1,1.3E1,7E0,3E0,1.3E1,1.1E1,1.5E1,9E0,1E0,2E0,2E0,5E0,6E0,1E0,1.3E1,1E0,3E0,2.5E1,1E1,6E0,1E0,1.2E1],"tree_param":{"num_deleted":"0","num_feature":"16","num_nodes":"59","size_leaf_vector":"1"}},{"base_weights":[-3.4671646E-2,-4.5907884E0,3.7405112E0,-5.546623E0,-2.458643E0,1.4658543E0,4.375108E0,-5.0850195E-1,-7.654895E-1,-3.3500724E0,-1.2153075E0,8.4210384E-1,2.5538082E0,3.6431592E0,4.4824715E0,-2.3232034E-1,-3.553068E0,-1.7028025E0,-6.5393186E-1,2.3068094E-1,1.3238937E0,2.5800955E0,6.485817E-2,3.71216E-1,1.6896074E-1,4.6184477E-1,3.961176E-1,-3.7681946E-1,-2.6674933E0,-2.223099E0,-1.2484549E0,-5.0201064E-1,-1.5288974E-1,-1.6017368E-1,5.089988E-1,9.3682885E-1,1.6490501E0,2.6287958E-1,1.0049255E-1,-1.5126106E-1,-3.0143103E-1,-7.0659585E-2,-2.4086332E-1,-1.9894417E-2,-1.4921485E-1,-6.2843375E-3,-6.1438154E-2,2.3439912E-2,-5.0421912E-2,2.0785492E-2,7.342975E-2,1.4300595E-1,6.72744E-2,1.7418121E-1,4.1669924E-2],"categories":[],"categories_nodes":[],"categories_segments":[],"categories_sizes":[],"default_left":[0,0,0,0,0,0,0,0,0,0,0,0,0,0,0,0,0,0,0,0,0,0,0,0,0,0,0,0,0,0,0,0,0,0,0,0,0,0,0,0,0,0,0,0,0,0,0,0,0,0,0,0,0,0,0],"id":6,"left_children":[1,3,5,7,9,11,13,-1,-1,15,17,19,21,23,25,-1,27,29,31,33,35,37,-1,-1,-1,-1,-1,-1,39,41,43,45,-1,47,49,51,53,-1,-1,-1,-1,-1,-1,-1,-1,-1,-1,-1,-1,-1,-1,-1,-1,-1,-1],"loss_changes":[1.7802238E4,9.41375E2,8.100171E2,2.7413965E2,1.5839893E2,8.233627E1,1.759082E1,0E0,0E0,8.87616E0,1.5891876E1,2.3399914E1,2.574768E-1,1.545166E0,7.854492E0,0E0,2.4500732E0,4.678467E0,3.1500883E0,4.141338E0,3.8600845E0,3.7020874E-1,0E0,0E0,0E0,0E0,0E0,0E0,1.7968979E0,1.9256287E0,4.6492195E0,1.2754574E0,0E0,2.317186E0,1.2457986E0,1.8235149E0,1.6875916E0,0E0,0E0,0E0,0E0,0E0,0E0,0E0,0E0,0E0,0E0,0E0,0E0,0E0,0E0,0E0,0E0,0E0,0E0],"parents":[2147483647,0,0,1,1,2,2,3,3,4,4,5,5,6,6,9,9,10,10,11,11,12,12,13,13,14,14,16,16,17,17,18,18,19,19,20,20,21,21,28,28,29,29,30,30,31,31,33,33,34,34,35,35,36,36],"right_children":[2,4,6,8,10,12,14,-1,-1,16,18,20,22,24,26,-1,28,30,32,34,36,38,-1,-1,-1,-1,-1,-1,40,42,44,46,-1,48,50,52,54,-1,-1,-1,-1,-1,-1,-1,-1,-1,-1,-1,-1,-1,-1,-1,-1,-1,-1],"split_conditions":[1.05E2,1.5E1,2.1E2,1.814983E-1,6E1,1.8E2,2.6043228E1,-5.0850195E-1,-7.654895E-1,1.482818E-1,2.4183203E1,1.35E2,8.534897E1,2.6029463E1,1.3431263E-1,-2.3232034E-1,4.5E1,7.5E1,1.7140399E-1,1.2E2,2.5070665E1,1.8769342E-1,6.485817E-2,3.71216E-1,1.6896074E-1,4.6184477E-1,3.961176E-1,-3.7681946E-1,8.594407E1,1.1875525E-1,1.3127687E0,1.02384076E-1,-1.5288974E-1,1.4851178E-1,1.4917228E-1,1.13318935E-1,1.1850662E0,2.6287958E-1,1.0049255E-1,-1.5126106E-1,-3.0143103E-1,-7.0659585E-2,-2.4086332E-1,-1.9894417E-2,-1.4921485E-1,-6.2843375E-3,-6.1438154E-2,2.3439912E-2,-5.0421912E-2,2.0785492E-2,7.342975E-2,1.4300595E-1,6.72744E-2,1.7418121E-1,4.1669924E-2],"split_indices":[3,3,3,0,3,3,5,0,0,0,5,3,6,5,0,0,3,3,2,3,5,2,0,0,0,0,0,0,6,2,7,0,0,2,2,0,7,0,0,0,0,0,0,0,0,0,0,0,0,0,0,0,0,0,0],"split_type":[0,0,0,0,0,0,0,0,0,0,0,0,0,0,0,0,0,0,0,0,0,0,0,0,0,0,0,0,0,0,0,0,0,0,0,0,0,0,0,0,0,0,0,0,0,0,0,0,0,0,0,0,0,0,0],"sum_hessian":[1.033E3,4.68E2,5.65E2,3.22E2,1.46E2,1.24E2,4.41E2,2.67E2,5.5E1,8.4E1,6.2E1,8E1,4.4E1,6.1E1,3.8E2,1.6E1,6.8E1,3.2E1,3E1,3.6E1,4.4E1,4.3E1,1E0,5.8E1,3E0,2.95E2,8.5E1,5.2E1,1.6E1,1.3E1,1.9E1,2.7E1,3E0,1.5E1,2.1E1,2.2E1,2.2E1,4.1E1,2E0,5E0,1.1E1,2E0,1.1E1,4E0,1.5E1,6E0,2.1E1,7E0,8E0,1E1,1.1E1,6E0,1.6E1,2E1,2E0],"tree_param":{"num_deleted":"0","num_feature":"16","num_nodes":"55","size_leaf_vector":"1"}},{"base_weights":[7.299937E-2,-4.0586433E0,3.3926072E0,-4.739129E0,-1.9150469E0,1.4005958E0,3.9647427E0,-4.362939E0,-6.8792546E-1,-2.8789573E0,-1.1688855E0,2.0333571E0,4.588184E-1,4.228888E0,3.7134306E0,-3.7655897E0,-4.556354E-1,-2.3040774E-1,-3.3776207E0,-1.6022568E0,-6.246836E-1,1.2022831E0,2.2268233E0,-1.4332828E-1,6.556778E-1,7.635376E-2,4.2412186E-1,2.5581893E-1,3.7627907E0,-2.002234E0,-3.8551173E-1,-8.150694E-2,-3.4492505E-1,-7.8313875E-1,-1.8047498E0,-8.042829E-1,-1.5709691E-1,1.6651936E-1,5.9467447E-1,2.5757852E0,1.9524155E0,-4.4957548E-1,2.1285826E-1,4.7818914E-1,1.3155448E0,3.8006705E-1,2.411853E-1,-3.8880177E-2,-2.22716E-1,-2.4869232E-2,-8.860245E-2,-0E0,-1.8735911E-1,1.431572E-2,-8.60978E-2,-3.6669252E-4,-4.8054453E-2,7.0348665E-2,1.09221265E-2,2.6791137E-1,9.2611395E-2,4.045583E-2,2.0224468E-1,-5.1858038E-2,-0E0,3.8827095E-2,-0E0,2.3569243E-2,7.6297216E-2,1.4357576E-1,1.8702812E-2],"categories":[],"categories_nodes":[],"categories_segments":[],"categories_sizes":[],"default_left":[0,0,0,0,0,0,0,0,0,0,0,0,0,0,0,0,0,0,0,0,0,0,0,0,0,0,0,0,0,0,0,0,0,0,0,0,0,0,0,0,0,0,0,0,0,0,0,0,0,0,0,0,0,0,0,0,0,0,0,0,0,0,0,0,0,0,0,0,0,0,0],"id":7,"left_children":[1,3,5,7,9,11,13,15,-1,17,19,21,23,25,27,29,-1,-1,31,33,35,37,39,41,43,-1,-1,-1,45,47,-1,-1,-1,49,51,53,55,-1,57,59,61,63,65,67,69,-1,-1,-1,-1,-1,-1,-1,-1,-1,-1,-1,-1,-1,-1,-1,-1,-1,-1,-1,-1,-1,-1,-1,-1,-1,-1],"loss_changes":[1.4346332E4,6.700073E2,6.549365E2,2.5306006E2,7.8222626E1,7.688342E1,1.3374023E1,1.7018555E1,0E0,5.6964417E0,1.4341942E1,9.521027E0,6.546275E0,5.3203125E0,3.3703613E0,4.324829E0,0E0,0E0,1.167511E0,4.299011E0,2.3808374E0,3.5653286E0,4.5516968E-1,1.6465033E0,3.9934254E0,0E0,0E0,0E0,1.8286133E0,1.0498981E0,0E0,0E0,0E0,1.610632E-1,3.5798492E0,1.3767719E0,4.4608232E-1,0E0,3.1730247E-1,1.2493134E0,3.1666412E0,2.6553428E-1,2.8585687E-1,2.0683112E0,6.544905E-1,0E0,0E0,0E0,0E0,0E0,0E0,0E0,0E0,0E0,0E0,0E0,0E0,0E0,0E0,0E0,0E0,0E0,0E0,0E0,0E0,0E0,0E0,0E0,0E0,0E0,0E0],"parents":[2147483647,0,0,1,1,2,2,3,3,4,4,5,5,6,6,7,7,9,9,10,10,11,11,12,12,13,13,14,14,15,15,18,18,19,19,20,20,21,21,22,22,23,23,24,24,28,28,29,29,33,33,34,34,35,35,36,36,38,38,39,39,40,40,41,41,42,42,43,43,44,44],"right_children":[2,4,6,8,10,12,14,16,-1,18,20,22,24,26,28,30,-1,-1,32,34,36,38,40,42,44,-1,-1,-1,46,48,-1,-1,-1,50,52,54,56,-1,58,60,62,64,66,68,70,-1,-1,-1,-1,-1,-1,-1,-1,-1,-1,-1,-1,-1,-1,-1,-1,-1,-1,-1,-1,-1,-1,-1,-1,-1,-1],"split_conditions":[1.05E2,3E1,2.1E2,5.5E-1,6E1,3.672677E-1,-1.5290484E-1,3.3940944E-1,-6.8792546E-1,2.130755E-1,2.4183203E1,2.5145851E1,1.2E2,3.8499668E0,2.5661974E1,7.305952E-1,-4.556354E-1,-2.3040774E-1,-2.102929E-1,1.3420911E-1,2.4916113E1,1.14190586E-1,1.527173E-1,2.4577232E1,8.493771E1,7.635376E-2,4.2412186E-1,2.5581893E-1,1.5775001E-1,-1.9633007E-1,-3.8551173E-1,-8.150694E-2,-3.4492505E-1,8.470202E1,8.622179E-2,2.4233475E1,-1.4601733E-1,1.6651936E-1,1.4049959E-1,-9.738508E-2,1.5427585E-1,1.3574775E-1,-1.6665292E-1,1.11153145E1,1.6917122E2,3.8006705E-1,2.411853E-1,-3.8880177E-2,-2.22716E-1,-2.4869232E-2,-8.860245E-2,-0E0,-1.8735911E-1,1.431572E-2,-8.60978E-2,-3.6669252E-4,-4.8054453E-2,7.0348665E-2,1.09221265E-2,2.6791137E-1,9.2611395E-2,4.045583E-2,2.0224468E-1,-5.1858038E-2,-0E0,3.8827095E-2,-0E0,2.3569243E-2,7.6297216E-2,1.4357576E-1,1.8702812E-2],"split_indices":[3,3,3,0,3,8,1,1,0,0,5,5,3,4,5,8,0,0,1,2,5,0,2,5,6,0,0,0,0,1,0,0,0,6,0,5,1,0,0,1,2,0,1,4,15,0,0,0,0,0,0,0,0,0,0,0,0,0,0,0,0,0,0,0,0,0,0,0,0,0,0],"split_type":[0,0,0,0,0,0,0,0,0,0,0,0,0,0,0,0,0,0,0,0,0,0,0,0,0,0,0,0,0,0,0,0,0,0,0,0,0,0,0,0,0,0,0,0,0,0,0,0,0,0,0,0,0,0,0,0,0,0,0,0,0,0,0,0,0,0,0,0,0,0,0],"sum_hessian":[1.044E3,4.65E2,5.79E2,3.52E2,1.13E2,1.3E2,4.49E2,3.02E2,5E1,4.8E1,6.5E1,7.7E1,5.3E1,2.11E2,2.38E2,7.9E1,2.23E2,2.5E1,2.3E1,3.5E1,3E1,1.6E1,6.1E1,1.3E1,4E1,1E0,2.1E2,1.2E1,2.26E2,5E0,7.4E1,1E0,2.2E1,8E0,2.7E1,2.1E1,9E0,8E0,8E0,2.3E1,3.8E1,7E0,6E0,3.3E1,7E0,2.18E2,8E0,1E0,4E0,2E0,6E0,1E0,2.6E1,1E0,2E1,7E0,2E0,6E0,2E0,2.1E1,2E0,2E0,3.6E1,6E0,1E0,3E0,3E0,1.9E1,1.4E1,6E0,1E0],"tree_param":{"num_deleted":"0","num_feature":"16","num_nodes":"71","size_leaf_vector":"1"}},{"base_weights":[-1.2127211E-1,3.048301E0,-3.6614377E0,3.4474485E0,8.649752E-1,-4.498809E0,-1.9690812E0,2.2091925E0,3.5452912E0,1.4620305E0,4.1289634E-1,-4.0522556E0,-6.296894E-1,-6.655995E-1,-2.5243266E0,2.4111109E0,1.3019904E0,3.8557124E0,3.2922115E0,8.130611E-2,1.7755115E0,5.344465E-1,-2.0260942E-1,-1.9835011E0,-4.0757084E-1,-2.9320353E-1,-9.345481E-1,-2.6892269E0,-6.967134E-1,5.0818636E-3,2.4900205E-1,1.4429119E0,3.7308882E-3,5.8966942E-2,3.8694897E0,2.625878E0,3.4325404E0,1.9070215E0,1.859342E-2,7.036094E-1,1.266368E-1,-3.6729628E-1,2.1586305E-2,-2.225378E-1,-4.5799654E-2,-4.465203E-1,1.9894734E-1,-1.089369E0,-2.7805823E-1,-1.9920788E0,-2.949487E0,-2.2731514E-1,-1.1945283E-1,2.4600906E-2,1.5644681E-1,2.5868794E-1,3.9267737E-1,2.658746E-1,5.0698202E-2,3.4681675E-1,2.135926E-1,6.982302E-2,1.9879892E-1,6.3384324E-3,7.9582155E-2,5.397702E-2,-1.517451E-2,-0E0,-4.12469E-2,-5.311082E-2,4.4573706E-2,-0E0,6.257793E-2,-1.1400773E-1,-0E0,3.0431442E-3,-7.32855E-2,-2.0870577E-1,-3.4493078E-2,-2.403866E-1,-3.257593E-1,-4.1493617E-2,1.2782491E-2],"categories":[],"categories_nodes":[],"categories_segments":[],"categories_sizes":[],"default_left":[0,0,0,0,0,0,0,0,0,0,0,0,0,0,0,0,0,0,0,0,0,0,0,0,0,0,0,0,0,0,0,0,0,0,0,0,0,0,0,0,0,0,0,0,0,0,0,0,0,0,0,0,0,0,0,0,0,0,0,0,0,0,0,0,0,0,0,0,0,0,0,0,0,0,0,0,0,0,0,0,0,0,0],"id":8,"left_children":[1,3,5,7,9,11,13,15,17,19,21,23,-1,25,27,29,31,33,35,-1,37,39,41,43,-1,45,47,49,51,-1,-1,53,-1,-1,55,57,59,61,-1,63,65,67,-1,-1,-1,69,71,73,75,77,79,81,-1,-1,-1,-1,-1,-1,-1,-1,-1,-1,-1,-1,-1,-1,-1,-1,-1,-1,-1,-1,-1,-1,-1,-1,-1,-1,-1,-1,-1,-1,-1],"loss_changes":[1.1781855E4,4.7938086E2,6.933911E2,4.829248E1,2.2691536E1,2.3922168E2,1.1814374E2,3.2671204E0,2.0529297E1,5.824814E0,3.9570227E0,4.3129883E0,0E0,4.711136E0,3.274701E1,5.02063E0,1.402134E0,5.7319336E0,1.3289795E1,0E0,4.453209E0,2.794283E0,7.1468127E-1,5.5736923E-1,0E0,1.8490559E0,2.5078602E0,1.2862915E1,2.1566892E0,0E0,0E0,5.980072E-1,0E0,0E0,2.9299316E0,1.6087341E0,1.2246094E0,4.9650574E-1,0E0,1.6347322E0,1.730834E0,7.643801E-2,0E0,0E0,0E0,1.6038072E0,5.457193E-1,1.3004055E0,1.0746449E0,4.043129E0,4.2111816E0,5.4817235E-1,0E0,0E0,0E0,0E0,0E0,0E0,0E0,0E0,0E0,0E0,0E0,0E0,0E0,0E0,0E0,0E0,0E0,0E0,0E0,0E0,0E0,0E0,0E0,0E0,0E0,0E0,0E0,0E0,0E0,0E0,0E0],"parents":[2147483647,0,0,1,1,2,2,3,3,4,4,5,5,6,6,7,7,8,8,9,9,10,10,11,11,13,13,14,14,15,15,16,16,17,17,18,18,20,20,21,21,22,22,23,23,25,25,26,26,27,27,28,28,31,31,34,34,35,35,36,36,37,37,39,39,40,40,41,41,45,45,46,46,47,47,48,48,49,49,50,50,51,51],"right_children":[2,4,6,8,10,12,14,16,18,20,22,24,-1,26,28,30,32,34,36,-1,38,40,42,44,-1,46,48,50,52,-1,-1,54,-1,-1,56,58,60,62,-1,64,66,68,-1,-1,-1,70,72,74,76,78,80,82,-1,-1,-1,-1,-1,-1,-1,-1,-1,-1,-1,-1,-1,-1,-1,-1,-1,-1,-1,-1,-1,-1,-1,-1,-1,-1,-1,-1,-1,-1,-1],"split_conditions":[5.0696236E-1,2.6442388E-1,2.1233113E0,1.05098694E2,3.5889295E-1,1E0,6.2229675E-1,2.1631569E-2,-1.5939975E-1,2.5145851E1,-9.982933E-2,-1.8064158E-1,-6.296894E-1,1.4296946E-1,2.4183203E1,7.5996594E0,1.0867704E1,2.5217318E1,2.6043228E1,8.130611E-2,1.8601546E-1,1.9443804E-2,4.4366735E-1,-1.811961E-1,-4.0757084E-1,2.4876972E1,2.4593208E1,1.8115567E-2,1.8115567E-2,5.0818636E-3,2.4900205E-1,-1.7325863E-1,3.7308882E-3,5.8966942E-2,7.295194E0,2.7090674E-2,2.6439562E-2,8.161934E1,1.859342E-2,8.534908E0,4.2560834E-1,1.2355556E-1,2.1586305E-2,-2.225378E-1,-4.5799654E-2,1.4182895E-1,-1.6665292E-1,6.154135E-1,-1.6168325E-1,1.2056542E1,7.305952E-1,1.3002646E1,-1.1945283E-1,2.4600906E-2,1.5644681E-1,2.5868794E-1,3.9267737E-1,2.658746E-1,5.0698202E-2,3.4681675E-1,2.135926E-1,6.982302E-2,1.9879892E-1,6.3384324E-3,7.9582155E-2,5.397702E-2,-1.517451E-2,-0E0,-4.12469E-2,-5.311082E-2,4.4573706E-2,-0E0,6.257793E-2,-1.1400773E-1,-0E0,3.0431442E-3,-7.32855E-2,-2.0870577E-1,-3.4493078E-2,-2.403866E-1,-3.257593E-1,-4.1493617E-2,1.2782491E-2],"split_indices":[8,8,4,15,8,10,8,14,1,5,1,1,0,2,5,4,4,5,5,0,2,14,8,1,0,5,5,14,14,0,0,1,0,0,4,14,14,15,0,4,8,2,0,0,0,2,1,8,1,4,8,4,0,0,0,0,0,0,0,0,0,0,0,0,0,0,0,0,0,0,0,0,0,0,0,0,0,0,0,0,0,0,0],"split_type":[0,0,0,0,0,0,0,0,0,0,0,0,0,0,0,0,0,0,0,0,0,0,0,0,0,0,0,0,0,0,0,0,0,0,0,0,0,0,0,0,0,0,0,0,0,0,0,0,0,0,0,0,0,0,0,0,0,0,0,0,0,0,0,0,0,0,0,0,0,0,0,0,0,0,0,0,0,0,0,0,0,0,0],"sum_hessian":[1.048E3,5.53E2,4.95E2,4.67E2,8.6E1,3.3E2,1.65E2,3.6E1,4.31E2,3.6E1,5E1,2.67E2,6.3E1,5E1,1.15E2,2.8E1,8E0,1.87E2,2.44E2,1.3E1,2.3E1,4.2E1,8E0,4E0,2.63E2,2.2E1,2.8E1,1.05E2,1E1,1E0,2.7E1,7E0,1E0,1E0,1.86E2,4.6E1,1.98E2,2.1E1,2E0,2.9E1,1.3E1,6E0,2E0,3E0,1E0,1.7E1,5E0,2.2E1,6E0,3.1E1,7.4E1,6E0,4E0,1E0,6E0,1E1,1.76E2,4.5E1,1E0,1.91E2,7E0,2E0,1.9E1,4E0,2.5E1,5E0,8E0,1E0,5E0,1.6E1,1E0,4E0,1E0,2.1E1,1E0,4E0,2E0,2.9E1,2E0,3E1,4.4E1,4E0,2E0],"tree_param":{"num_deleted":"0","num_feature":"16","num_nodes":"83","size_leaf_vector":"1"}},{"base_weights":[2.7418733E-2,-3.301962E0,2.729066E0,-4.0253882E0,-1.838048E0,9.876077E-1,3.1406596E0,-3.6954956E0,-5.64571E-1,-2.4860058E0,-9.741886E-1,3.0059603E-1,1.6674659E0,2.1534624E0,3.2081006E0,-3.3053565E0,-3.910242E-1,-4.662115E-2,-2.502524E0,-1.3257327E0,-5.474819E-1,1.2693192E-1,2.2142033E-1,1.2487291E0,1.8012424E0,2.2834611E-1,1.171225E0,2.9146829E0,3.3831868E0,-3.4729342E0,-2.456399E-1,-2.5471802E0,-1.2317921E-1,-1.6889338E0,-9.638207E-1,-7.667797E-1,-1.8795057E-1,-1.12840556E-1,3.5543966E-1,1.5307075E0,6.129448E-1,1.8248367E-1,3.905308E-2,3.5443497E-3,1.3712926E-1,2.9680307E0,1.9566023E-1,3.5061967E-1,2.9719785E-1,-7.9921074E-2,-3.495116E-1,-6.4977095E-2,-2.5610074E-1,-7.0901E-2,-1.9282174E-1,-0E0,-1.1243208E-1,-1.2902878E-2,-9.1190316E-2,-0E0,-5.137017E-2,-2.6098842E-2,3.718501E-2,4.426653E-2,-9.225824E-3,1.8894951E-1,7.0226334E-2,1.9742787E-2,7.19666E-2,2.9768652E-1,7.3609464E-2],"categories":[],"categories_nodes":[],"categories_segments":[],"categories_sizes":[],"default_left":[0,0,0,0,0,0,0,0,0,0,0,0,0,0,0,0,0,0,0,0,0,0,0,0,0,0,0,0,0,0,0,0,0,0,0,0,0,0,0,0,0,0,0,0,0,0,0,0,0,0,0,0,0,0,0,0,0,0,0,0,0,0,0,0,0,0,0,0,0,0,0],"id":9,"left_children":[1,3,5,7,9,11,13,15,-1,17,19,21,23,25,27,29,-1,-1,31,33,35,-1,37,39,41,-1,43,45,47,49,-1,51,-1,53,55,57,59,61,63,65,67,-1,-1,-1,-1,69,-1,-1,-1,-1,-1,-1,-1,-1,-1,-1,-1,-1,-1,-1,-1,-1,-1,-1,-1,-1,-1,-1,-1,-1,-1],"loss_changes":[9.417526E3,4.8870215E2,4.1078027E2,1.4551074E2,8.5112E1,5.161386E1,2.364746E1,8.388184E0,0E0,1.5057373E0,9.437294E0,3.9417353E0,5.826874E-1,1.1938324E0,1.1856445E1,5.102783E0,0E0,0E0,1.4781494E0,2.9704285E0,2.362277E0,0E0,2.4834287E0,1.895113E0,3.9720154E-1,0E0,1.1741219E0,2.3891602E0,2.386963E0,1.5811157E0,0E0,2.1862793E-1,0E0,2.3553047E0,3.2457924E0,1.6292973E0,8.2489145E-1,1.2348565E0,1.5988588E0,1.6834908E0,7.6619625E-2,0E0,0E0,0E0,0E0,5.7250977E-1,0E0,0E0,0E0,0E0,0E0,0E0,0E0,0E0,0E0,0E0,0E0,0E0,0E0,0E0,0E0,0E0,0E0,0E0,0E0,0E0,0E0,0E0,0E0,0E0,0E0],"parents":[2147483647,0,0,1,1,2,2,3,3,4,4,5,5,6,6,7,7,9,9,10,10,11,11,12,12,13,13,14,14,15,15,18,18,19,19,20,20,22,22,23,23,24,24,26,26,27,27,28,28,29,29,31,31,33,33,34,34,35,35,36,36,37,37,38,38,39,39,40,40,45,45],"right_children":[2,4,6,8,10,12,14,16,-1,18,20,22,24,26,28,30,-1,-1,32,34,36,-1,38,40,42,-1,44,46,48,50,-1,52,-1,54,56,58,60,62,64,66,68,-1,-1,-1,-1,70,-1,-1,-1,-1,-1,-1,-1,-1,-1,-1,-1,-1,-1,-1,-1,-1,-1,-1,-1,-1,-1,-1,-1,-1,-1],"split_conditions":[1.05E2,1.5E1,1.95E2,1E0,6E1,1.5E2,2.25E2,2.601452E-3,-5.64571E-1,8.10378E1,2.4183203E1,-2.3203291E-1,1.65E2,2.209652E-2,2.6492002E1,2.3352962E1,-3.910242E-1,-4.662115E-2,2.4183203E1,7.5E1,1.1343201E2,1.2693192E-1,1.2E2,1.6682936E-2,8.534897E1,2.2834611E-1,1.5991566E-1,-8.071301E-2,2.0222973E-2,-7.782491E-2,-2.456399E-1,1.1026537E-2,-1.2317921E-1,1.2409138E-1,1.3127687E0,1.0635016E0,1.7185005E0,8.70356E1,-9.982933E-2,9.464661E-1,1.4987403E-1,1.8248367E-1,3.905308E-2,3.5443497E-3,1.3712926E-1,9.356717E-1,1.9566023E-1,3.5061967E-1,2.9719785E-1,-7.9921074E-2,-3.495116E-1,-6.4977095E-2,-2.5610074E-1,-7.0901E-2,-1.9282174E-1,-0E0,-1.1243208E-1,-1.2902878E-2,-9.1190316E-2,-0E0,-5.137017E-2,-2.6098842E-2,3.718501E-2,4.426653E-2,-9.225824E-3,1.8894951E-1,7.0226334E-2,1.9742787E-2,7.19666E-2,2.9768652E-1,7.3609464E-2],"split_indices":[3,3,3,10,3,3,3,14,0,6,5,1,3,14,5,5,0,0,5,3,15,0,3,14,6,0,2,1,14,1,0,14,0,2,7,7,7,6,1,7,2,0,0,0,0,7,0,0,0,0,0,0,0,0,0,0,0,0,0,0,0,0,0,0,0,0,0,0,0,0,0],"split_type":[0,0,0,0,0,0,0,0,0,0,0,0,0,0,0,0,0,0,0,0,0,0,0,0,0,0,0,0,0,0,0,0,0,0,0,0,0,0,0,0,0,0,0,0,0,0,0,0,0,0,0,0,0,0,0,0,0,0,0,0,0,0,0,0,0,0,0,0,0,0,0],"sum_hessian":[1.045E3,4.68E2,5.77E2,3.12E2,1.56E2,1.11E2,4.66E2,2.62E2,5E1,8.8E1,6.8E1,5.6E1,5.5E1,3.2E1,4.34E2,9.9E1,1.63E2,1E0,8.7E1,3.6E1,3.2E1,3E0,5.3E1,1.6E1,3.9E1,2.7E1,5E0,1.69E2,2.65E2,8E1,1.9E1,8.3E1,4E0,1.6E1,2E1,1.9E1,1.3E1,1.5E1,3.8E1,1E1,6E0,3.8E1,1E0,1E0,4E0,1.58E2,1.1E1,1.98E2,6.7E1,1E0,7.9E1,1E0,8.2E1,4E0,1.2E1,3E0,1.7E1,4E0,1.5E1,9E0,4E0,1.2E1,3E0,3.2E1,6E0,6E0,4E0,2E0,4E0,1.57E2,1E0],"tree_param":{"num_deleted":"0","num_feature":"16","num_nodes":"71","size_leaf_vector":"1"}},{"base_weights":[9.0955555E-2,-2.9942527E0,2.4773483E0,-3.5476263E0,-1.5417905E0,1.0906956E0,2.9205277E0,-3.2140222E0,-5.040737E-1,-1.9824617E0,-6.729275E-1,3.324988E-1,1.5855016E0,3.2103088E0,2.6806583E0,-2.8112683E0,-3.4769845E0,-1.3356801E0,-2.228026E0,-3.991428E-1,-9.9020123E-1,7.1677923E-1,4.981486E-3,1.1538987E0,1.821665E0,3.6933277E0,3.0487206E0,1.67894E-1,2.7188401E0,-8.2747376E-1,-2.856529E0,-1.3396488E-1,-3.4947035E-1,-1.7169889E0,-8.79059E-1,-4.4290084E-2,-2.2490807E0,-4.824821E-1,1.548439E-1,-1.0846263E0,3.519375E-2,3.9857528E-1,1.2078685E0,3.5199198E-1,-2.0530984E-1,1.4608265E0,7.943615E-1,1.865621E0,7.698208E-2,9.913685E-2,3.729932E-1,1.7152542E-1,3.0810678E-1,2.7353925E-1,1.3671871E0,-9.892198E-2,-1.2111778E-2,-7.491724E-2,-2.867967E-1,-4.300043E-2,-1.7800707E-1,-1.0365969E-1,-3.681714E-2,-1.9981214E-1,-2.6669887E-1,-5.5907246E-2,-0E0,-0E0,1.8083267E-2,-2.1831283E-2,-1.22716546E-1,-1.5414819E-2,5.2606322E-2,5.7139363E-2,1.38473E-1,5.207177E-2,-2.1126555E-4,-3.143895E-2,5.2063126E-2,1.8326427E-1,9.155852E-2,3.5933916E-2,9.2634395E-2,9.633076E-2,1.9186616E-1,3.327896E-2,1.5175892E-1],"categories":[],"categories_nodes":[],"categories_segments":[],"categories_sizes":[],"default_left":[0,0,0,0,0,0,0,0,0,0,0,0,0,0,0,0,0,0,0,0,0,0,0,0,0,0,0,0,0,0,0,0,0,0,0,0,0,0,0,0,0,0,0,0,0,0,0,0,0,0,0,0,0,0,0,0,0,0,0,0,0,0,0,0,0,0,0,0,0,0,0,0,0,0,0,0,0,0,0,0,0,0,0,0,0,0,0],"id":10,"left_children":[1,3,5,7,9,11,13,15,-1,17,19,21,23,25,27,29,31,33,35,37,39,41,43,45,47,49,51,-1,53,55,57,-1,-1,59,61,-1,63,65,67,69,-1,71,73,75,77,79,81,83,-1,-1,-1,-1,-1,-1,85,-1,-1,-1,-1,-1,-1,-1,-1,-1,-1,-1,-1,-1,-1,-1,-1,-1,-1,-1,-1,-1,-1,-1,-1,-1,-1,-1,-1,-1,-1,-1,-1],"loss_changes":[7.7821855E3,3.6455225E2,3.62677E2,1.4884326E2,4.7792297E1,5.4054413E1,2.2154053E1,1.8721436E1,0E0,1.0167969E1,3.3747444E0,7.349905E0,6.57016E0,3.5979004E0,4.671997E0,7.503601E0,9.7021484E-1,2.7580147E0,9.897766E-1,1.3078637E0,2.989622E0,3.5771236E0,2.4950545E0,2.3660202E0,8.431854E-1,2.8082275E-1,9.213867E-1,0E0,1.2640381E0,2.2615528E-1,1.6522217E-1,0E0,0E0,6.89621E-2,6.046562E-1,0E0,3.9230347E-1,8.970928E-1,2.1948367E-3,1.933733E0,0E0,1.386663E0,1.3884258E-1,8.296658E-1,1.8059506E0,1.4936409E0,5.7203674E-1,3.5220337E-1,0E0,0E0,0E0,0E0,0E0,0E0,8.780098E-2,0E0,0E0,0E0,0E0,0E0,0E0,0E0,0E0,0E0,0E0,0E0,0E0,0E0,0E0,0E0,0E0,0E0,0E0,0E0,0E0,0E0,0E0,0E0,0E0,0E0,0E0,0E0,0E0,0E0,0E0,0E0,0E0],"parents":[2147483647,0,0,1,1,2,2,3,3,4,4,5,5,6,6,7,7,9,9,10,10,11,11,12,12,13,13,14,14,15,15,16,16,17,17,18,18,19,19,20,20,21,21,22,22,23,23,24,24,25,25,26,26,28,28,29,29,30,30,33,33,34,34,36,36,37,37,38,38,39,39,41,41,42,42,43,43,44,44,45,45,46,46,47,47,54,54],"right_children":[2,4,6,8,10,12,14,16,-1,18,20,22,24,26,28,30,32,34,36,38,40,42,44,46,48,50,52,-1,54,56,58,-1,-1,60,62,-1,64,66,68,70,-1,72,74,76,78,80,82,84,-1,-1,-1,-1,-1,-1,86,-1,-1,-1,-1,-1,-1,-1,-1,-1,-1,-1,-1,-1,-1,-1,-1,-1,-1,-1,-1,-1,-1,-1,-1,-1,-1,-1,-1,-1,-1,-1,-1],"split_conditions":[1.05E2,3.4596046E1,2.25E2,2.5705817E-1,7.5E1,1.5E2,1.7175786E-2,4.1961706E-1,-5.040737E-1,1.4457649E-1,1.5347582E-1,-1.5110204E-1,1.8E2,-1.9279622E-1,2.5661974E1,-1.811961E-1,4.1447394E-2,2.3656221E1,8.10378E1,1.4944616E-1,8.946995E1,1.35E2,8.325186E1,1.7136002E-2,1.8769342E-1,2.5355549E1,1.12997856E2,1.67894E-1,2.9244741E-2,6.4731486E-2,8.315551E1,-1.3396488E-1,-3.4947035E-1,9.3857005E-2,1.5355279E-2,-4.4290084E-2,2.9539347E-2,2.4876972E1,-2.0121248E-1,-2.0028491E-1,3.519375E-2,8.1888115E1,6.785399E1,1.1934852E-1,8.70356E1,1.3373196E2,1.8285532E-2,9.490181E-2,7.698208E-2,9.913685E-2,3.729932E-1,1.7152542E-1,3.0810678E-1,2.7353925E-1,1.5994173E-1,-9.892198E-2,-1.2111778E-2,-7.491724E-2,-2.867967E-1,-4.300043E-2,-1.7800707E-1,-1.0365969E-1,-3.681714E-2,-1.9981214E-1,-2.6669887E-1,-5.5907246E-2,-0E0,-0E0,1.8083267E-2,-2.1831283E-2,-1.22716546E-1,-1.5414819E-2,5.2606322E-2,5.7139363E-2,1.38473E-1,5.207177E-2,-2.1126555E-4,-3.143895E-2,5.2063126E-2,1.8326427E-1,9.155852E-2,3.5933916E-2,9.2634395E-2,9.633076E-2,1.9186616E-1,3.327896E-2,1.5175892E-1],"split_indices":[3,15,3,0,3,3,14,1,0,0,2,1,3,1,5,1,2,5,6,2,6,3,6,14,2,5,15,0,14,0,6,0,0,0,14,0,14,5,1,1,0,6,15,0,6,15,14,0,0,0,0,0,0,0,0,0,0,0,0,0,0,0,0,0,0,0,0,0,0,0,0,0,0,0,0,0,0,0,0,0,0,0,0,0,0,0,0],"split_type":[0,0,0,0,0,0,0,0,0,0,0,0,0,0,0,0,0,0,0,0,0,0,0,0,0,0,0,0,0,0,0,0,0,0,0,0,0,0,0,0,0,0,0,0,0,0,0,0,0,0,0,0,0,0,0,0,0,0,0,0,0,0,0,0,0,0,0,0,0,0,0,0,0,0,0,0,0,0,0,0,0,0,0,0,0,0,0],"sum_hessian":[1.055E3,4.6E2,5.95E2,3.32E2,1.28E2,1.45E2,4.5E2,2.74E2,5.8E1,8.4E1,4.4E1,5.8E1,8.7E1,1.98E2,2.52E2,1.13E2,1.61E2,2.5E1,5.9E1,2.5E1,1.9E1,2.6E1,3.2E1,3.3E1,5.4E1,4.4E1,1.54E2,1.1E1,2.41E2,3E0,1.1E2,2E0,1.59E2,1.2E1,1.3E1,1E0,5.8E1,2.2E1,3E0,1.8E1,1E0,1.7E1,9E0,1.2E1,2E1,1.6E1,1.7E1,5.1E1,3E0,1E0,4.3E1,5E0,1.49E2,2.37E2,4E0,2E0,1E0,1E0,1.09E2,1E0,1.1E1,9E0,4E0,4E1,1.8E1,1.9E1,3E0,1E0,2E0,3E0,1.5E1,3E0,1.4E1,3E0,6E0,8E0,4E0,1.8E1,2E0,8E0,8E0,5E0,1.2E1,4E0,4.7E1,1E0,3E0],"tree_param":{"num_deleted":"0","num_feature":"16","num_nodes":"87","size_leaf_vector":"1"}},{"base_weights":[-9.935963E-2,-2.730055E0,2.1855595E0,-3.210441E0,-1.2085994E0,8.23445E-1,2.5293405E0,-2.9147933E0,-4.5815212E-1,-1.5960379E0,-5.78991E-1,1.1454808E-1,1.170504E0,1.8326653E0,2.613757E0,-2.156051E0,-3.0132234E0,-1.7265005E0,-6.946571E-1,-2.3167008E-1,-7.647505E-1,-2.903506E-1,3.0896047E-1,9.344511E-1,1.453894E0,1.9848658E0,1.2156897E0,2.8924742E0,2.4035387E0,-1.699648E0,-2.6996523E-1,-3.445113E-1,-2.8561165E0,-1.2597234E0,-1.9119847E0,-1.3586318E-1,-9.802732E-1,9.384765E-3,-4.848788E-1,-1.0999469E0,-4.3783873E-1,-6.8077765E-2,-9.514469E-2,5.020869E-1,-1.9997554E-1,5.7411534E-1,1.1957551E0,1.4958405E-1,5.8032986E-4,7.050802E-2,2.0310366E-1,1.2674896E-1,2.4704477E-2,2.9117913E0,8.389748E-2,1.7146938E0,2.4776082E0,-5.0481685E-2,-1.7807774E-1,-2.541478E-1,-3.0007672E-1,-1.3033584E-1,-1.43512925E-2,-1.3350596E-1,-2.1141504E-1,1.5686225E-3,-2.0267209E-2,-3.748965E-2,-1.1274445E-1,-1.3688127E-2,2.0302704E-2,-5.8974296E-2,1.2701722E-2,-1.20285034E-1,-2.8835056E-2,-7.38397E-2,-7.7520623E-3,-2.1826558E-2,2.3155926E-2,6.5208375E-2,2.6746814E-3,-2.5743788E-2,5.1130485E-3,6.1563205E-2,-7.8109936E-3,1.4642695E-1,4.2962868E-2,3.343477E-1,2.744768E-1,1.7539895E-1,3.161499E-2,2.5961915E-1,2.0596914E-1],"categories":[],"categories_nodes":[],"categories_segments":[],"categories_sizes":[],"default_left":[0,0,0,0,0,0,0,0,0,0,0,0,0,0,0,0,0,0,0,0,0,0,0,0,0,0,0,0,0,0,0,0,0,0,0,0,0,0,0,0,0,0,0,0,0,0,0,0,0,0,0,0,0,0,0,0,0,0,0,0,0,0,0,0,0,0,0,0,0,0,0,0,0,0,0,0,0,0,0,0,0,0,0,0,0,0,0,0,0,0,0,0,0],"id":11,"left_children":[1,3,5,7,9,11,13,15,-1,17,19,21,23,25,27,29,31,33,35,37,39,41,43,45,47,49,51,53,55,57,-1,-1,59,61,63,65,67,69,71,73,75,-1,77,79,81,83,85,-1,-1,-1,-1,-1,-1,87,-1,89,91,-1,-1,-1,-1,-1,-1,-1,-1,-1,-1,-1,-1,-1,-1,-1,-1,-1,-1,-1,-1,-1,-1,-1,-1,-1,-1,-1,-1,-1,-1,-1,-1,-1,-1,-1,-1],"loss_changes":[6.323505E3,3.530808E2,2.6121704E2,1.3628369E2,2.7886597E1,2.8030739E1,2.1171387E1,1.5989014E1,0E0,7.143112E0,2.7555418E0,3.161543E0,3.5534973E0,2.149994E0,1.58376465E1,4.6475525E0,7.850586E0,2.7287903E0,1.510809E0,1.1507692E0,2.6520119E0,8.484131E-1,2.7844186E0,3.3735847E0,1.8456497E0,6.5789795E-1,1.877079E-1,3.7669678E0,7.220581E0,1.1989288E0,0E0,0E0,1.1038818E0,6.91082E-1,1.8478394E0,7.2501995E-2,5.0750256E-2,3.17638E-1,6.986737E-1,6.7326164E-1,1.7022097E0,0E0,4.5145288E-1,1.3406668E0,1.4922678E-1,6.7048264E-1,4.3244133E0,0E0,0E0,0E0,0E0,0E0,0E0,2.0386963E0,0E0,6.673355E-1,4.4952393E0,0E0,0E0,0E0,0E0,0E0,0E0,0E0,0E0,0E0,0E0,0E0,0E0,0E0,0E0,0E0,0E0,0E0,0E0,0E0,0E0,0E0,0E0,0E0,0E0,0E0,0E0,0E0,0E0,0E0,0E0,0E0,0E0,0E0,0E0,0E0,0E0],"parents":[2147483647,0,0,1,1,2,2,3,3,4,4,5,5,6,6,7,7,9,9,10,10,11,11,12,12,13,13,14,14,15,15,16,16,17,17,18,18,19,19,20,20,21,21,22,22,23,23,24,24,25,25,26,26,27,27,28,28,29,29,32,32,33,33,34,34,35,35,36,36,37,37,38,38,39,39,40,40,42,42,43,43,44,44,45,45,46,46,53,53,55,55,56,56],"right_children":[2,4,6,8,10,12,14,16,-1,18,20,22,24,26,28,30,32,34,36,38,40,42,44,46,48,50,52,54,56,58,-1,-1,60,62,64,66,68,70,72,74,76,-1,78,80,82,84,86,-1,-1,-1,-1,-1,-1,88,-1,90,92,-1,-1,-1,-1,-1,-1,-1,-1,-1,-1,-1,-1,-1,-1,-1,-1,-1,-1,-1,-1,-1,-1,-1,-1,-1,-1,-1,-1,-1,-1,-1,-1,-1,-1,-1,-1],"split_conditions":[1.05E2,3E1,1.95E2,4.3413244E-2,7.5E1,1.35E2,2.4E2,-8.968586E-2,-4.5815212E-1,2.4183203E1,1.6017262E-2,9.897589E0,2.5355549E1,2.1631569E-2,1.7110508E-2,2.4282165E0,2.2522242E1,1.8646143E-2,8.67751E1,-1.3881427E-1,9E1,6.640127E0,1.5389345E0,1.1003258E1,1.1850662E0,7.766938E-2,2.2940208E-1,-3.9606825E-2,2.6060816E1,7.305952E-1,-2.6996523E-1,-3.445113E-1,2.601452E-3,1.2114144E1,8.6274895E1,1.1252109E-1,1.3562787E0,-1.811961E-1,8.6447365E1,1.9369566E0,1.2725382E-1,-6.8077765E-2,8.4874214E1,-1.3148926E-1,2.4707363E1,1.2436788E-1,1.3163269E-1,1.4958405E-1,5.8032986E-4,7.050802E-2,2.0310366E-1,1.2674896E-1,2.4704477E-2,-1.9023709E-1,8.389748E-2,2.3578038E-2,-1.1140793E-1,-5.0481685E-2,-1.7807774E-1,-2.541478E-1,-3.0007672E-1,-1.3033584E-1,-1.43512925E-2,-1.3350596E-1,-2.1141504E-1,1.5686225E-3,-2.0267209E-2,-3.748965E-2,-1.1274445E-1,-1.3688127E-2,2.0302704E-2,-5.8974296E-2,1.2701722E-2,-1.20285034E-1,-2.8835056E-2,-7.38397E-2,-7.7520623E-3,-2.1826558E-2,2.3155926E-2,6.5208375E-2,2.6746814E-3,-2.5743788E-2,5.1130485E-3,6.1563205E-2,-7.8109936E-3,1.4642695E-1,4.2962868E-2,3.343477E-1,2.744768E-1,1.7539895E-1,3.161499E-2,2.5961915E-1,2.0596914E-1],"split_indices":[3,3,3,14,3,3,3,1,0,5,14,4,5,14,14,7,5,14,6,1,3,4,7,4,7,0,8,1,5,8,0,0,14,4,6,0,7,1,6,7,0,0,6,1,5,0,0,0,0,0,0,0,0,1,0,14,1,0,0,0,0,0,0,0,0,0,0,0,0,0,0,0,0,0,0,0,0,0,0,0,0,0,0,0,0,0,0,0,0,0,0,0,0],"split_type":[0,0,0,0,0,0,0,0,0,0,0,0,0,0,0,0,0,0,0,0,0,0,0,0,0,0,0,0,0,0,0,0,0,0,0,0,0,0,0,0,0,0,0,0,0,0,0,0,0,0,0,0,0,0,0,0,0,0,0,0,0,0,0,0,0,0,0,0,0,0,0,0,0,0,0,0,0,0,0,0,0,0,0,0,0,0,0,0,0,0,0,0,0],"sum_hessian":[1.05E3,4.88E2,5.62E2,3.7E2,1.18E2,1.14E2,4.48E2,3.07E2,6.3E1,7.2E1,4.6E1,3.8E1,7.6E1,5.1E1,3.97E2,3.8E1,2.69E2,6.2E1,1E1,1.7E1,2.9E1,1.2E1,2.6E1,4.4E1,3.2E1,3.9E1,1.2E1,1.65E2,2.32E2,2.3E1,1.5E1,6.6E1,2.03E2,2E1,4.2E1,4E0,6E0,9E0,8E0,1.3E1,1.6E1,3E0,9E0,1.9E1,7E0,2E1,2.4E1,3.1E1,1E0,2E0,3.7E1,1.1E1,1E0,1.63E2,2E0,2.5E1,2.07E2,2E0,2.1E1,7E1,1.33E2,1.9E1,1E0,1.3E1,2.9E1,1E0,3E0,2E0,4E0,5E0,4E0,7E0,1E0,1.1E1,2E0,8E0,8E0,7E0,2E0,1.4E1,5E0,6E0,1E0,1.9E1,1E0,1.7E1,7E0,4E1,1.23E2,2.4E1,1E0,1.57E2,5E1],"tree_param":{"num_deleted":"0","num_feature":"16","num_nodes":"93","size_leaf_vector":"1"}},{"base_weights":[2.8430656E-2,-2.3898365E0,2.0597317E0,-2.860229E0,-1.0148973E0,9.857588E-1,2.342823E0,-2.6162543E0,-4.071281E-1,-1.6534626E0,-5.116197E-1,4.3150458E-1,1.2877294E0,2.5723205E0,2.1662617E0,-2.7300212E0,-2.1861231E0,-1.3908747E0,-2.1104005E-1,-7.033521E-1,-2.606829E-1,5.628866E-1,-7.462124E-2,1.3776989E0,7.172921E-1,1.7743056E0,2.6239755E0,2.1765451E0,9.2356265E-2,-2.4197667E0,-2.9198413E0,-1.7502314E0,-2.6323035E-1,-1.4447738E0,-2.4712765E-1,-7.4057597E-1,3.2418936E-2,-7.197287E-2,-4.083872E-1,9.679577E-1,3.4193704E-1,-4.3008577E-2,1.24875806E-1,1.4538459E0,8.487832E-1,3.7486736E-2,9.429608E-2,3.5816688E-2,1.8427323E-1,2.6359007E-1,1.00843385E-1,2.195041E-1,1.3995495E-1,-8.9004464E-2,-2.4417816E-1,-1.5392177E-1,-2.958264E-1,-1.794446E-1,-7.1479793E-4,-3.6984902E-2,-1.4941858E-1,-3.204586E-2,-2.3288652E-5,-4.9107302E-2,-1.1003758E-1,-2.6846318E-2,2.0472368E-2,-5.057764E-2,-3.4019928E-3,5.8569532E-2,1.2359375E-1,-3.3303212E-2,4.194575E-2,-7.077548E-3,2.3729142E-2,1.4851646E-1,6.425816E-2,2.0017827E-2,9.5956445E-2],"categories":[],"categories_nodes":[],"categories_segments":[],"categories_sizes":[],"default_left":[0,0,0,0,0,0,0,0,0,0,0,0,0,0,0,0,0,0,0,0,0,0,0,0,0,0,0,0,0,0,0,0,0,0,0,0,0,0,0,0,0,0,0,0,0,0,0,0,0,0,0,0,0,0,0,0,0,0,0,0,0,0,0,0,0,0,0,0,0,0,0,0,0,0,0,0,0,0,0],"id":12,"left_children":[1,3,5,7,9,11,13,15,-1,17,19,21,23,25,27,29,31,33,-1,35,37,39,41,43,45,47,49,51,-1,53,55,57,-1,59,61,63,-1,65,67,69,71,-1,73,75,77,-1,-1,-1,-1,-1,-1,-1,-1,-1,-1,-1,-1,-1,-1,-1,-1,-1,-1,-1,-1,-1,-1,-1,-1,-1,-1,-1,-1,-1,-1,-1,-1,-1,-1],"loss_changes":[5.2511494E3,3.1232886E2,1.7400073E2,9.593384E1,3.9430893E1,1.985875E1,1.255249E1,8.465332E0,0E0,3.3138123E0,3.1843605E0,3.0831423E0,2.8567047E0,2.9013672E0,1.0791016E0,6.3582764E0,8.3741455E0,1.8163528E0,0E0,1.8116875E0,8.4238935E-1,2.7600403E0,7.933695E-1,1.2341919E0,5.1930046E-1,5.734291E-1,4.4519043E-1,3.4814453E-1,0E0,7.264404E-1,2.529419E0,2.735649E0,0E0,1.1730728E0,2.2171304E-2,2.8015652E0,0E0,9.312257E-1,5.850823E-1,3.232174E-1,1.456433E0,0E0,1.874058E-1,2.8112793E-1,4.8232841E-1,0E0,0E0,0E0,0E0,0E0,0E0,0E0,0E0,0E0,0E0,0E0,0E0,0E0,0E0,0E0,0E0,0E0,0E0,0E0,0E0,0E0,0E0,0E0,0E0,0E0,0E0,0E0,0E0,0E0,0E0,0E0,0E0,0E0,0E0],"parents":[2147483647,0,0,1,1,2,2,3,3,4,4,5,5,6,6,7,7,9,9,10,10,11,11,12,12,13,13,14,14,15,15,16,16,17,17,19,19,20,20,21,21,22,22,23,23,24,24,25,25,26,26,27,27,29,29,30,30,31,31,33,33,34,34,35,35,37,37,38,38,39,39,40,40,42,42,43,43,44,44],"right_children":[2,4,6,8,10,12,14,16,-1,18,20,22,24,26,28,30,32,34,-1,36,38,40,42,44,46,48,50,52,-1,54,56,58,-1,60,62,64,-1,66,68,70,72,-1,74,76,78,-1,-1,-1,-1,-1,-1,-1,-1,-1,-1,-1,-1,-1,-1,-1,-1,-1,-1,-1,-1,-1,-1,-1,-1,-1,-1,-1,-1,-1,-1,-1,-1,-1,-1],"split_conditions":[1.2E2,3E1,2.1E2,4.3413244E-2,6E1,1.5E2,1.7110508E-2,8.2889E-2,-4.071281E-1,2.9539347E-2,9E1,1.6917122E2,9.9478143E-1,2.4E2,8.328509E1,2.6896398E-3,2.1631569E-2,2.8768536E-2,-2.1104005E-1,8.930689E1,1.4944616E-1,1.1287071E-1,1.4369922E0,2.3394607E-2,1.65E2,7.766938E-2,8.4066345E1,2.7776266E-2,9.2356265E-2,1.5928108E0,1.6525401E0,2.7150995E-1,-2.6323035E-1,3.861582E1,2.4076225E-1,1.5212362E-1,3.2418936E-2,1.4145486E-1,1.326088E-1,1.35E2,8.143713E1,-4.3008577E-2,1.3413288E-2,8.534897E1,2.4041874E-2,3.7486736E-2,9.429608E-2,3.5816688E-2,1.8427323E-1,2.6359007E-1,1.00843385E-1,2.195041E-1,1.3995495E-1,-8.9004464E-2,-2.4417816E-1,-1.5392177E-1,-2.958264E-1,-1.794446E-1,-7.1479793E-4,-3.6984902E-2,-1.4941858E-1,-3.204586E-2,-2.3288652E-5,-4.9107302E-2,-1.1003758E-1,-2.6846318E-2,2.0472368E-2,-5.057764E-2,-3.4019928E-3,5.8569532E-2,1.2359375E-1,-3.3303212E-2,4.194575E-2,-7.077548E-3,2.3729142E-2,1.4851646E-1,6.425816E-2,2.0017827E-2,9.5956445E-2],"split_indices":[3,3,3,14,3,3,14,2,0,14,3,15,7,3,6,14,14,14,0,6,2,0,7,14,3,0,6,14,0,7,7,2,0,15,0,2,0,2,0,3,6,0,14,6,14,0,0,0,0,0,0,0,0,0,0,0,0,0,0,0,0,0,0,0,0,0,0,0,0,0,0,0,0,0,0,0,0,0,0],"split_type":[0,0,0,0,0,0,0,0,0,0,0,0,0,0,0,0,0,0,0,0,0,0,0,0,0,0,0,0,0,0,0,0,0,0,0,0,0,0,0,0,0,0,0,0,0,0,0,0,0,0,0,0,0,0,0,0,0,0,0,0,0,0,0,0,0,0,0,0,0,0,0,0,0,0,0,0,0,0,0],"sum_hessian":[1.067E3,4.87E2,5.8E2,3.62E2,1.25E2,1.22E2,4.58E2,3.04E2,5.8E1,5.4E1,7.1E1,4.4E1,7.8E1,1.93E2,2.65E2,2.36E2,6.8E1,3.7E1,1.7E1,3.9E1,3.2E1,3.5E1,9E0,6.6E1,1.2E1,1.4E1,1.79E2,2.62E2,3E0,9.5E1,1.41E2,3.7E1,3.1E1,3.5E1,2E0,3.8E1,1E0,1.5E1,1.7E1,1.1E1,2.4E1,3E0,6E0,5.6E1,1E1,6E0,6E0,1E0,1.3E1,1.77E2,2E0,2.54E2,8E0,2E0,9.3E1,5E0,1.36E2,3.6E1,1E0,2E0,3.3E1,1E0,1E0,2.4E1,1.4E1,9E0,6E0,1.3E1,4E0,6E0,5E0,2E0,2.2E1,2E0,4E0,5.3E1,3E0,2E0,8E0],"tree_param":{"num_deleted":"0","num_feature":"16","num_nodes":"79","size_leaf_vector":"1"}},{"base_weights":[-2.8817883E-2,1.8642391E0,-2.166646E0,2.0670333E0,6.182169E-1,-8.1009597E-1,-2.5136824E0,1.4294124E0,2.1562424E0,1.4841132E-1,5.278237E-1,-4.8548573E-1,-1.2946072E0,-2.3181183E0,-3.6480746E-1,1.5839117E0,8.703264E-1,1.9932094E0,2.419531E0,8.14211E-1,2.810381E-1,-3.508556E-1,-8.311776E-1,-2.4425212E-1,-1.4648323E0,-1.9095432E0,-2.4990764E0,8.8756377E-1,1.6598765E0,8.9678615E-2,1.8671533E-2,2.2365637E0,1.8101555E0,2.444382E0,1.1502194E0,4.3502638E-1,9.4991183E-1,4.662917E-1,4.894459E-2,9.412771E-2,-4.1904673E-1,-1.1187018E0,-3.553751E-1,-3.9122742E-1,4.879074E-2,-6.480348E-1,-1.6080306E0,-9.514206E-1,-1.9845103E0,-2.0293245E0,-2.593191E0,9.65972E-2,1.5855713E-2,3.4025878E-2,1.6813242E-1,2.2587049E-1,6.532473E-2,2.0068724E-1,1.5997402E-1,8.147082E-2,2.4598072E-1,2.606365E-2,1.282456E-1,5.0756436E-2,-9.517689E-3,1.05335295E-1,1.4436779E-2,-7.704366E-3,5.2646857E-2,-3.788867E-2,1.2308621E-2,-3.3107515E-2,3.504239E-2,-3.0097684E-2,-8.7072164E-2,-1.2849286E-1,-5.231296E-2,-5.939267E-2,6.6581724E-4,-1.1917636E-2,-4.9953602E-2,-0E0,7.4032024E-3,-9.747483E-2,-1.34312725E-2,-1.7385203E-1,-8.0139995E-2,-1.0459737E-1,-2.2144244E-5,-1.6651814E-1,-2.3279433E-1,-1.6159195E-1,-2.4396145E-1,-2.4657555E-1,-2.9317522E-1],"categories":[],"categories_nodes":[],"categories_segments":[],"categories_sizes":[],"default_left":[0,0,0,0,0,0,0,0,0,0,0,0,0,0,0,0,0,0,0,0,0,0,0,0,0,0,0,0,0,0,0,0,0,0,0,0,0,0,0,0,0,0,0,0,0,0,0,0,0,0,0,0,0,0,0,0,0,0,0,0,0,0,0,0,0,0,0,0,0,0,0,0,0,0,0,0,0,0,0,0,0,0,0,0,0,0,0,0,0,0,0,0,0,0,0],"id":13,"left_children":[1,3,5,7,9,11,13,15,17,-1,19,21,23,25,-1,27,29,31,33,35,37,39,41,43,45,47,49,51,53,-1,-1,55,57,59,61,63,65,67,69,71,73,75,77,79,81,83,85,87,89,91,93,-1,-1,-1,-1,-1,-1,-1,-1,-1,-1,-1,-1,-1,-1,-1,-1,-1,-1,-1,-1,-1,-1,-1,-1,-1,-1,-1,-1,-1,-1,-1,-1,-1,-1,-1,-1,-1,-1,-1,-1,-1,-1,-1,-1],"loss_changes":[4.3343916E3,1.41979E2,2.3442944E2,2.4317627E1,5.355419E0,1.55503235E1,7.96853E1,3.8178864E0,1.3021973E1,0E0,4.96237E0,2.5687675E0,6.801964E0,2.0220703E1,0E0,8.111038E-1,1.3616562E-2,7.5300293E0,1.8127441E0,1.1977634E0,1.7314928E0,1.5284443E0,1.780714E0,3.548223E-1,2.8260803E0,5.7193604E0,4.664795E0,1.345067E-1,4.1448212E-1,0E0,0E0,2.1245728E0,3.0101929E0,1.539856E0,9.961271E-2,5.126059E-1,1.7279911E0,8.375168E-1,6.5545774E-1,8.8079655E-1,1.860589E0,1.3701057E-1,7.5359035E-1,2.5923252E-2,3.8198703E-3,9.330518E-1,1.4052124E0,7.9453754E-1,6.8007507E0,3.115326E0,5.1501465E-1,0E0,0E0,0E0,0E0,0E0,0E0,0E0,0E0,0E0,0E0,0E0,0E0,0E0,0E0,0E0,0E0,0E0,0E0,0E0,0E0,0E0,0E0,0E0,0E0,0E0,0E0,0E0,0E0,0E0,0E0,0E0,0E0,0E0,0E0,0E0,0E0,0E0,0E0,0E0,0E0,0E0,0E0,0E0,0E0],"parents":[2147483647,0,0,1,1,2,2,3,3,4,4,5,5,6,6,7,7,8,8,10,10,11,11,12,12,13,13,15,15,16,16,17,17,18,18,19,19,20,20,21,21,22,22,23,23,24,24,25,25,26,26,27,27,28,28,31,31,32,32,33,33,34,34,35,35,36,36,37,37,38,38,39,39,40,40,41,41,42,42,43,43,44,44,45,45,46,46,47,47,48,48,49,49,50,50],"right_children":[2,4,6,8,10,12,14,16,18,-1,20,22,24,26,-1,28,30,32,34,36,38,40,42,44,46,48,50,52,54,-1,-1,56,58,60,62,64,66,68,70,72,74,76,78,80,82,84,86,88,90,92,94,-1,-1,-1,-1,-1,-1,-1,-1,-1,-1,-1,-1,-1,-1,-1,-1,-1,-1,-1,-1,-1,-1,-1,-1,-1,-1,-1,-1,-1,-1,-1,-1,-1,-1,-1,-1,-1,-1,-1,-1,-1,-1,-1,-1],"split_conditions":[4.8750138E-1,2.6442388E-1,7.305952E-1,1.12997856E2,-1.9988905E-1,1.3574775E-1,4.3413244E-2,2.1631569E-2,1.2749704E1,1.4841132E-1,3.5889295E-1,1.5788895E-1,5.6912404E-1,3.6450142E-1,-3.6480746E-1,8.175033E0,2.2940208E-1,1.7175786E-2,2.5926918E-2,8.763031E1,-1.4902359E-1,8.633855E-1,1.3119928E2,1.6173863E-1,-1.9633007E-1,1.5389345E0,5.1662892E-2,1.7878702E-2,7.766938E-2,8.9678615E-2,1.8671533E-2,2.4237959E-1,-1.4667304E-1,1.088324E-1,2.7090674E-2,1.4049959E-1,1.8601546E-1,6.087341E1,6.4533076E0,-1.3842857E-1,-8.708547E-2,1.1112244E-1,5.8041364E-1,1.4723085E-1,1.6561882E-1,1.8476558E0,-4.8715573E-2,1.5113302E0,2.1631569E-2,4.603151E-1,6.4731486E-2,9.65972E-2,1.5855713E-2,3.4025878E-2,1.6813242E-1,2.2587049E-1,6.532473E-2,2.0068724E-1,1.5997402E-1,8.147082E-2,2.4598072E-1,2.606365E-2,1.282456E-1,5.0756436E-2,-9.517689E-3,1.05335295E-1,1.4436779E-2,-7.704366E-3,5.2646857E-2,-3.788867E-2,1.2308621E-2,-3.3107515E-2,3.504239E-2,-3.0097684E-2,-8.7072164E-2,-1.2849286E-1,-5.231296E-2,-5.939267E-2,6.6581724E-4,-1.1917636E-2,-4.9953602E-2,-0E0,7.4032024E-3,-9.747483E-2,-1.34312725E-2,-1.7385203E-1,-8.0139995E-2,-1.0459737E-1,-2.2144244E-5,-1.6651814E-1,-2.3279433E-1,-1.6159195E-1,-2.4396145E-1,-2.4657555E-1,-2.9317522E-1],"split_indices":[8,8,8,15,1,0,14,14,4,0,8,2,8,1,0,4,8,14,14,15,1,7,15,0,1,7,2,14,0,0,0,8,1,2,14,0,2,15,4,1,1,0,8,0,0,7,1,7,14,1,0,0,0,0,0,0,0,0,0,0,0,0,0,0,0,0,0,0,0,0,0,0,0,0,0,0,0,0,0,0,0,0,0,0,0,0,0,0,0,0,0,0,0,0,0],"split_type":[0,0,0,0,0,0,0,0,0,0,0,0,0,0,0,0,0,0,0,0,0,0,0,0,0,0,0,0,0,0,0,0,0,0,0,0,0,0,0,0,0,0,0,0,0,0,0,0,0,0,0,0,0,0,0,0,0,0,0,0,0,0,0,0,0,0,0,0,0,0,0,0,0,0,0,0,0,0,0,0,0,0,0,0,0,0,0,0,0,0,0,0,0,0,0],"sum_hessian":[1.069E3,5.67E2,5.02E2,4.87E2,8E1,1.03E2,3.99E2,6.2E1,4.25E2,6E0,7.4E1,6.3E1,4E1,3.43E2,5.6E1,4.7E1,1.5E1,2.68E2,1.57E2,3.3E1,4.1E1,4.7E1,1.6E1,6E0,3.4E1,1.09E2,2.34E2,6E0,4.1E1,1.4E1,1E0,1.1E2,1.58E2,1.53E2,4E0,1E1,2.3E1,2.2E1,1.9E1,6E0,4.1E1,9E0,7E0,4E0,2E0,6E0,2.8E1,9E0,1E2,4.3E1,1.91E2,5E0,1E0,1E0,4E1,1.08E2,2E0,7.7E1,8.1E1,2E0,1.51E2,1E0,3E0,9E0,1E0,2E1,3E0,2E0,2E1,2E0,1.7E1,2E0,4E0,3.4E1,7E0,6E0,3E0,4E0,3E0,2E0,2E0,1E0,1E0,3E0,3E0,2.3E1,5E0,8E0,1E0,5.5E1,4.5E1,2.4E1,1.9E1,1.45E2,4.6E1],"tree_param":{"num_deleted":"0","num_feature":"16","num_nodes":"95","size_leaf_vector":"1"}},{"base_weights":[-7.288729E-2,-1.9843311E0,1.5962131E0,-2.321928E0,-9.180433E-1,6.018091E-1,1.8610047E0,-2.1391027E0,-3.3266613E-1,-1.2056352E0,-4.2076015E-1,1.1302093E-1,8.5897464E-1,1.4468127E0,1.9310528E0,-1.5522125E0,-2.2288048E0,-9.0024656E-1,-1.4554787E0,-2.4294429E-1,-6.1611503E-1,-1.2940389E-1,3.1449908E-1,9.0060514E-1,1.8570302E-1,1.5047439E0,5.7107773E-2,2.0194528E0,1.6587312E0,-9.428911E-1,-1.8134038E0,-1.9603226E0,-2.3696454E0,-4.310851E-1,-1.1627325E0,-1.7967414E-3,-1.4893131E0,-9.432604E-2,-5.530446E-1,-7.320573E-1,-7.868851E-2,-2.4163726E-1,2.3562363E-1,4.5991108E-1,-1.8172207E-1,9.879377E-1,5.437879E-1,2.082715E-2,-0E0,1.5462713E0,4.7026407E-2,2.299714E0,1.8884342E0,1.6755544E0,5.285398E-2,-1.1460358E-1,-3.9664403E-2,-1.859915E-1,-1.5903493E-2,-1.7427911E-1,-2.3178737E-1,-1.0963867E-1,-2.4153046E-1,-5.2096147E-2,-2.8684712E-3,-5.2533634E-2,-1.4025097E-1,-2.0082017E-2,-1.5153046E-1,-1.8689087E-2,7.6769474E-3,-1.8950138E-2,-7.132702E-2,-3.2754358E-2,-9.724625E-2,-1.5852604E-2,7.0330813E-3,7.352944E-3,-2.7421702E-2,4.038583E-2,-0E0,-0E0,5.1965125E-2,8.431448E-3,-3.6081895E-2,1.3966598E-1,8.92609E-2,8.6923596E-4,6.506875E-2,5.099978E-2,1.5710603E-1,2.315425E-1,4.3999787E-2,1.9647671E-1,1.4442013E-1,7.96272E-2,1.7037356E-1],"categories":[],"categories_nodes":[],"categories_segments":[],"categories_sizes":[],"default_left":[0,0,0,0,0,0,0,0,0,0,0,0,0,0,0,0,0,0,0,0,0,0,0,0,0,0,0,0,0,0,0,0,0,0,0,0,0,0,0,0,0,0,0,0,0,0,0,0,0,0,0,0,0,0,0,0,0,0,0,0,0,0,0,0,0,0,0,0,0,0,0,0,0,0,0,0,0,0,0,0,0,0,0,0,0,0,0,0,0,0,0,0,0,0,0,0,0],"id":14,"left_children":[1,3,5,7,9,11,13,15,-1,17,19,21,23,25,27,29,31,33,35,37,39,41,43,45,47,49,-1,51,53,55,57,59,61,63,65,-1,67,69,71,73,75,77,79,81,83,85,87,-1,-1,89,-1,91,93,95,-1,-1,-1,-1,-1,-1,-1,-1,-1,-1,-1,-1,-1,-1,-1,-1,-1,-1,-1,-1,-1,-1,-1,-1,-1,-1,-1,-1,-1,-1,-1,-1,-1,-1,-1,-1,-1,-1,-1,-1,-1,-1,-1],"loss_changes":[3.3945925E3,1.7609204E2,1.4819397E2,6.140515E1,1.6634842E1,1.5015358E1,9.866211E0,1.3061401E1,0E0,4.2528915E0,1.3623228E0,2.159469E0,1.938385E0,2.4336243E0,5.430298E0,5.3354034E0,5.3581543E0,3.8958664E0,1.768013E0,1.0813473E0,1.1698403E0,8.7690204E-1,1.8431509E0,1.6155663E0,9.971395E-3,1.8205872E0,0E0,5.5932617E0,7.7630615E-1,1.1666393E0,1.8876648E0,3.4100342E0,7.232727E0,4.7258615E-1,2.5855885E0,0E0,8.3018494E-1,3.262707E-1,2.4054861E-1,1.2046776E0,7.945546E-2,2.0452046E-1,2.1171215E-1,5.7178974E-1,3.4395063E-1,7.8425217E-1,9.008322E-1,0E0,0E0,5.5763245E-1,0E0,1.189209E0,3.5355835E0,7.9696655E-1,0E0,0E0,0E0,0E0,0E0,0E0,0E0,0E0,0E0,0E0,0E0,0E0,0E0,0E0,0E0,0E0,0E0,0E0,0E0,0E0,0E0,0E0,0E0,0E0,0E0,0E0,0E0,0E0,0E0,0E0,0E0,0E0,0E0,0E0,0E0,0E0,0E0,0E0,0E0,0E0,0E0,0E0,0E0],"parents":[2147483647,0,0,1,1,2,2,3,3,4,4,5,5,6,6,7,7,9,9,10,10,11,11,12,12,13,13,14,14,15,15,16,16,17,17,18,18,19,19,20,20,21,21,22,22,23,23,24,24,25,25,27,27,28,28,29,29,30,30,31,31,32,32,33,33,34,34,36,36,37,37,38,38,39,39,40,40,41,41,42,42,43,43,44,44,45,45,46,46,49,49,51,51,52,52,53,53],"right_children":[2,4,6,8,10,12,14,16,-1,18,20,22,24,26,28,30,32,34,36,38,40,42,44,46,48,50,-1,52,54,56,58,60,62,64,66,-1,68,70,72,74,76,78,80,82,84,86,88,-1,-1,90,-1,92,94,96,-1,-1,-1,-1,-1,-1,-1,-1,-1,-1,-1,-1,-1,-1,-1,-1,-1,-1,-1,-1,-1,-1,-1,-1,-1,-1,-1,-1,-1,-1,-1,-1,-1,-1,-1,-1,-1,-1,-1,-1,-1,-1,-1],"split_conditions":[1.05E2,3E1,1.95E2,2.656785E-1,7.5E1,1.35E2,2.5E2,-8.9107655E-2,-3.3266613E-1,1.8247261E0,1.5347582E-1,1.2E2,1.3127687E0,1.820614E-1,1.612436E-1,1.620903E-2,2.601452E-3,8.67751E1,8.308145E1,8.6447365E1,1.326088E-1,8.70356E1,-9.982933E-2,1.663101E-1,1.4718458E-1,-8.237646E-2,5.7107773E-2,1.1055726E-1,5.874041E-1,8.930689E1,4.0511326E1,4.645113E-1,1.556502E0,1.7185005E0,1.4625017E-1,-1.7967414E-3,9.3857005E-2,1.7676277E-2,1.3420911E-1,1.7544953E-2,1.6173863E-1,7.983004E1,8.827892E1,8.1069435E1,8.348586E1,1.40054645E-2,1.6891344E-1,2.082715E-2,-0E0,7.766938E-2,4.7026407E-2,-3.507247E-2,-1.0692447E-1,1.6209118E-1,5.285398E-2,-1.1460358E-1,-3.9664403E-2,-1.859915E-1,-1.5903493E-2,-1.7427911E-1,-2.3178737E-1,-1.0963867E-1,-2.4153046E-1,-5.2096147E-2,-2.8684712E-3,-5.2533634E-2,-1.4025097E-1,-2.0082017E-2,-1.5153046E-1,-1.8689087E-2,7.6769474E-3,-1.8950138E-2,-7.132702E-2,-3.2754358E-2,-9.724625E-2,-1.5852604E-2,7.0330813E-3,7.352944E-3,-2.7421702E-2,4.038583E-2,-0E0,-0E0,5.1965125E-2,8.431448E-3,-3.6081895E-2,1.3966598E-1,8.92609E-2,8.6923596E-4,6.506875E-2,5.099978E-2,1.5710603E-1,2.315425E-1,4.3999787E-2,1.9647671E-1,1.4442013E-1,7.96272E-2,1.7037356E-1],"split_indices":[3,3,3,0,3,3,3,1,0,7,2,3,7,2,2,14,14,6,6,6,0,6,1,2,2,1,0,0,7,6,15,1,7,7,0,0,0,14,2,14,0,6,6,6,6,14,2,0,0,0,0,1,1,2,0,0,0,0,0,0,0,0,0,0,0,0,0,0,0,0,0,0,0,0,0,0,0,0,0,0,0,0,0,0,0,0,0,0,0,0,0,0,0,0,0,0,0],"split_type":[0,0,0,0,0,0,0,0,0,0,0,0,0,0,0,0,0,0,0,0,0,0,0,0,0,0,0,0,0,0,0,0,0,0,0,0,0,0,0,0,0,0,0,0,0,0,0,0,0,0,0,0,0,0,0,0,0,0,0,0,0,0,0,0,0,0,0,0,0,0,0,0,0,0,0,0,0,0,0,0,0,0,0,0,0,0,0,0,0,0,0,0,0,0,0,0,0],"sum_hessian":[1.062E3,4.95E2,5.67E2,3.75E2,1.2E2,1.2E2,4.47E2,3.2E2,5.5E1,7.5E1,4.5E1,4.2E1,7.8E1,6.8E1,3.79E2,4.5E1,2.75E2,3.6E1,3.9E1,2.5E1,2E1,1.9E1,2.3E1,7.3E1,5E0,6.3E1,5E0,2.81E2,9.8E1,1.5E1,3E1,1E2,1.75E2,1.4E1,2.2E1,1E0,3.8E1,1.8E1,7E0,1.6E1,4E0,1.5E1,4E0,1.8E1,5E0,5.7E1,1.6E1,4E0,1E0,6E1,3E0,8.4E1,1.97E2,9.6E1,2E0,1E1,5E0,2.9E1,1E0,6.6E1,3.4E1,7E0,1.68E2,1.1E1,3E0,7E0,1.5E1,1E0,3.7E1,1.2E1,6E0,3E0,4E0,7E0,9E0,3E0,1E0,1E0,1.4E1,2E0,2E0,2E0,1.6E1,2E0,3E0,8E0,4.9E1,3E0,1.3E1,2E0,5.8E1,8.3E1,1E0,1.65E2,3.2E1,4E0,9.2E1],"tree_param":{"num_deleted":"0","num_feature":"16","num_nodes":"97","size_leaf_vector":"1"}},{"base_weights":[7.187792E-3,-1.890419E0,1.3985022E0,-1.6983417E0,-2.966161E0,2.6962298E-1,1.6759065E0,-1.2423941E0,-1.9834186E0,-2.9863584E-1,-7.766697E-2,-3.6906846E-2,6.0493827E-1,1.4615655E0,1.8954158E0,-1.4228534E0,-6.7518795E-1,-2.3144105E-1,-1.8565809E0,-1.8630262E-1,1.4637436E-1,8.8247824E-1,2.7248555E-1,1.0415999E0,1.5404983E0,1.7053857E0,2.232602E0,-7.423433E-1,-1.5114737E0,-8.932372E-1,-1.19978145E-1,-1.7786251E0,-2.3313735E0,1.4124572E-1,-2.347851E-1,-7.598924E-2,3.136892E-1,6.8170357E-1,1.2864047E-1,3.310566E-1,-2.9262555E-1,1.1408457E0,2.227768E-1,1.8740582E0,1.4473433E0,1.5322583E0,1.9415425E0,-0E0,2.259214E0,-8.149793E-2,8.728047E-3,-1.0943419E-1,-1.6031186E-1,-6.1206188E-2,-1.0420413E-1,-2.8090397E-2,2.470995E-2,-3.722021E-2,-1.7847714E-1,-5.247404E-2,-2.3904681E-1,4.338069E-2,-1.6506398E-2,-3.0182723E-2,3.348356E-3,6.4707273E-3,-3.340451E-2,9.4714975E-3,5.3569585E-2,2.9623855E-2,9.011998E-2,2.072211E-2,6.9263816E-2,-0E0,-4.753687E-2,8.5517555E-2,1.3266177E-1,-1.712209E-2,4.8758086E-2,1.9149165E-1,4.943581E-3,1.4738604E-1,6.126162E-2,1.6284017E-1,1.2261043E-1,1.9639346E-1,2.378132E-2,2.4377795E-1,1.6281803E-1],"categories":[],"categories_nodes":[],"categories_segments":[],"categories_sizes":[],"default_left":[0,0,0,0,0,0,0,0,0,0,0,0,0,0,0,0,0,0,0,0,0,0,0,0,0,0,0,0,0,0,0,0,0,0,0,0,0,0,0,0,0,0,0,0,0,0,0,0,0,0,0,0,0,0,0,0,0,0,0,0,0,0,0,0,0,0,0,0,0,0,0,0,0,0,0,0,0,0,0,0,0,0,0,0,0,0,0,0,0],"id":15,"left_children":[1,3,5,7,9,11,13,15,17,-1,-1,19,21,23,25,27,29,-1,31,33,35,37,39,41,43,45,47,49,51,53,55,57,59,61,63,65,67,69,-1,71,73,75,77,79,81,83,85,-1,87,-1,-1,-1,-1,-1,-1,-1,-1,-1,-1,-1,-1,-1,-1,-1,-1,-1,-1,-1,-1,-1,-1,-1,-1,-1,-1,-1,-1,-1,-1,-1,-1,-1,-1,-1,-1,-1,-1,-1,-1],"loss_changes":[2.7774111E3,8.644446E1,1.8943909E2,4.6605713E1,2.2296143E-1,1.251601E1,1.9807373E1,1.4080765E1,5.02594E0,0E0,0E0,1.7836747E0,4.995638E0,6.4577026E0,1.0984619E1,5.406967E0,4.3919086E0,0E0,1.84552E0,6.142092E-1,1.1265442E0,1.4402866E0,1.0274949E0,3.1038666E0,3.4496155E0,3.0557556E0,4.6979675E0,1.0478096E0,1.7222443E0,3.2647514E-1,7.8165895E-1,4.425354E-1,6.961212E-1,5.4655176E-1,6.1247027E-1,5.2054715E-1,7.126539E-1,1.5592728E0,0E0,9.3067765E-1,1.9506165E-1,6.6397095E-1,7.4111325E-1,2.8400269E0,2.6070251E0,5.1426697E-1,1.6780701E0,0E0,4.7513733E0,0E0,0E0,0E0,0E0,0E0,0E0,0E0,0E0,0E0,0E0,0E0,0E0,0E0,0E0,0E0,0E0,0E0,0E0,0E0,0E0,0E0,0E0,0E0,0E0,0E0,0E0,0E0,0E0,0E0,0E0,0E0,0E0,0E0,0E0,0E0,0E0,0E0,0E0,0E0,0E0],"parents":[2147483647,0,0,1,1,2,2,3,3,4,4,5,5,6,6,7,7,8,8,11,11,12,12,13,13,14,14,15,15,16,16,18,18,19,19,20,20,21,21,22,22,23,23,24,24,25,25,26,26,27,27,28,28,29,29,30,30,31,31,32,32,33,33,34,34,35,35,36,36,37,37,39,39,40,40,41,41,42,42,43,43,44,44,45,45,46,46,48,48],"right_children":[2,4,6,8,10,12,14,16,18,-1,-1,20,22,24,26,28,30,-1,32,34,36,38,40,42,44,46,48,50,52,54,56,58,60,62,64,66,68,70,-1,72,74,76,78,80,82,84,86,-1,88,-1,-1,-1,-1,-1,-1,-1,-1,-1,-1,-1,-1,-1,-1,-1,-1,-1,-1,-1,-1,-1,-1,-1,-1,-1,-1,-1,-1,-1,-1,-1,-1,-1,-1,-1,-1,-1,-1,-1,-1],"split_conditions":[9E1,3.7789416E-2,1.8E2,3.3369768E-1,8.806413E0,1.35E2,2.6558914E1,2.3900986E1,2.2539936E1,-2.9863584E-1,-7.766697E-2,2.4759523E1,1.7136002E-2,2.5661974E1,1.3187559E1,-1.7693393E-1,1.2354416E1,-2.3144105E-1,4.427537E-3,8.633855E-1,1.107556E1,2.5355549E1,1.3703172E0,2.1887034E-2,-1.851234E-1,2.7098167E1,2.25E2,1.3970476E1,1.7185005E0,1.6808838E-2,1.6606163E0,1.3703172E0,5.4683678E-2,1.302438E-1,1.4556205E-1,-1.18216895E-1,1.2E2,1.1003258E1,1.2864047E-1,1.2852893E1,1.3016272E-1,1.7175786E-2,1.4373592E-1,2.6548891E1,6.0348994E-1,2.0222973E-2,-4.8715573E-2,-0E0,1.9839084E-2,-8.149793E-2,8.728047E-3,-1.0943419E-1,-1.6031186E-1,-6.1206188E-2,-1.0420413E-1,-2.8090397E-2,2.470995E-2,-3.722021E-2,-1.7847714E-1,-5.247404E-2,-2.3904681E-1,4.338069E-2,-1.6506398E-2,-3.0182723E-2,3.348356E-3,6.4707273E-3,-3.340451E-2,9.4714975E-3,5.3569585E-2,2.9623855E-2,9.011998E-2,2.072211E-2,6.9263816E-2,-0E0,-4.753687E-2,8.5517555E-2,1.3266177E-1,-1.712209E-2,4.8758086E-2,1.9149165E-1,4.943581E-3,1.4738604E-1,6.126162E-2,1.6284017E-1,1.2261043E-1,1.9639346E-1,2.378132E-2,2.4377795E-1,1.6281803E-1],"split_indices":[3,14,3,1,4,3,5,5,5,0,0,5,14,5,4,1,4,0,14,7,4,5,7,14,1,5,3,4,7,14,7,7,0,0,0,1,3,4,0,4,0,14,0,5,7,14,1,0,14,0,0,0,0,0,0,0,0,0,0,0,0,0,0,0,0,0,0,0,0,0,0,0,0,0,0,0,0,0,0,0,0,0,0,0,0,0,0,0,0],"split_type":[0,0,0,0,0,0,0,0,0,0,0,0,0,0,0,0,0,0,0,0,0,0,0,0,0,0,0,0,0,0,0,0,0,0,0,0,0,0,0,0,0,0,0,0,0,0,0,0,0,0,0,0,0,0,0,0,0,0,0,0,0,0,0,0,0,0,0,0,0,0,0,0,0,0,0,0,0,0,0,0,0,0,0,0,0,0,0,0,0],"sum_hessian":[1.05E3,4.44E2,6.06E2,3.79E2,6.5E1,1.2E2,4.86E2,1.48E2,2.31E2,6.4E1,1E0,6.3E1,5.7E1,2.5E2,2.36E2,1.11E2,3.7E1,5.9E1,1.72E2,3.5E1,2.8E1,3E1,2.7E1,4.2E1,2.08E2,1.55E2,8.1E1,1.4E1,9.7E1,2.6E1,1.1E1,1.52E2,2E1,4E0,3.1E1,1.2E1,1.6E1,2.2E1,8E0,2.5E1,2E0,3.7E1,5E0,4.1E1,1.67E2,9.4E1,6.1E1,1E0,8E1,1.3E1,1E0,2E1,7.7E1,1.1E1,1.5E1,8E0,3E0,1E0,1.51E2,1E0,1.9E1,2E0,2E0,2.5E1,6E0,8E0,4E0,9E0,7E0,9E0,1.3E1,2E1,5E0,1E0,1E0,1.7E1,2E1,2E0,3E0,4E1,1E0,1.61E2,6E0,6.8E1,2.6E1,6E1,1E0,6E1,2E1],"tree_param":{"num_deleted":"0","num_feature":"16","num_nodes":"89","size_leaf_vector":"1"}},{"base_weights":[1.3088406E-2,-1.5814302E0,1.3333129E0,-1.89358E0,-8.586305E-1,5.568018E-1,1.5512744E0,-1.7555381E0,-2.680298E-1,-6.878444E-1,-1.4477729E0,8.331308E-1,2.1313816E-1,1.3943702E0,1.7965856E0,-1.6584464E0,-2.1102386E0,-4.8771775E-1,-9.5911294E-1,-6.514397E-1,-1.5346977E0,6.6134804E-1,1.1011643E0,-7.867721E-2,2.99492E-1,1.6217089E0,1.298537E0,8.536006E-2,1.8189744E0,-1.1661593E0,-1.7228532E0,-2.1265614E-1,-5.3991813E-2,-8.7751645E-1,-4.2057174E-1,-1.0469068E0,-0E0,-8.295771E-2,-0E0,-1.5724851E0,-2.0721741E-2,1.2232416E0,5.605502E-1,6.0633063E-2,1.214298E0,-1.5090612E-1,2.0313084E-1,5.3679895E-1,1.6412416E-1,7.8599584E-1,1.666203E0,-0E0,1.3116843E0,1.8914311E0,1.4192929E0,-7.526647E-2,-1.394452E-1,-1.0390919E-1,-1.7638575E-1,-3.9421473E-2,-1.0367983E-1,-3.418317E-2,-8.26422E-2,-1.1034724E-2,-1.0864966E-1,-7.0283986E-3,1.5380688E-2,-1.6360585E-1,-4.8521183E-2,1.3760297E-1,1.796505E-2,2.200722E-2,7.252399E-2,1.5174599E-2,1.256972E-1,6.511708E-3,-1.8555524E-2,2.7658194E-2,-0E0,8.081876E-2,2.831471E-2,2.4594553E-2,-1.3725558E-2,8.524819E-3,8.890958E-2,1.676437E-1,4.0956613E-2,-2.148163E-2,1.9205399E-2,1.335941E-1,5.469988E-2,4.9387056E-2,1.9074987E-1,6.4505965E-2,1.581807E-1],"categories":[],"categories_nodes":[],"categories_segments":[],"categories_sizes":[],"default_left":[0,0,0,0,0,0,0,0,0,0,0,0,0,0,0,0,0,0,0,0,0,0,0,0,0,0,0,0,0,0,0,0,0,0,0,0,0,0,0,0,0,0,0,0,0,0,0,0,0,0,0,0,0,0,0,0,0,0,0,0,0,0,0,0,0,0,0,0,0,0,0,0,0,0,0,0,0,0,0,0,0,0,0,0,0,0,0,0,0,0,0,0,0,0,0],"id":16,"left_children":[1,3,5,7,9,11,13,15,-1,17,19,21,23,25,27,29,31,33,35,37,39,41,43,45,47,49,51,-1,53,55,57,-1,-1,59,61,63,65,-1,-1,67,-1,69,71,-1,73,75,77,79,81,83,85,87,89,91,93,-1,-1,-1,-1,-1,-1,-1,-1,-1,-1,-1,-1,-1,-1,-1,-1,-1,-1,-1,-1,-1,-1,-1,-1,-1,-1,-1,-1,-1,-1,-1,-1,-1,-1,-1,-1,-1,-1,-1,-1],"loss_changes":[2.235619E3,1.06622925E2,9.72594E1,3.1232056E1,1.3581337E1,1.1968185E1,1.4611938E1,6.041687E0,0E0,5.6849594E0,9.967041E-1,2.3645897E0,1.5324078E0,3.724121E0,1.8325195E0,5.026245E0,7.18689E-2,1.3071003E0,4.069519E0,6.3092375E-1,9.007187E-1,1.7412624E0,5.3721046E-1,3.1039688E-1,1.3194981E0,1.382721E0,3.52536E0,0E0,1.8496094E0,1.5676651E0,3.550415E0,0E0,0E0,1.410079E-1,1.5500345E0,1.3918686E0,6.7072466E-2,0E0,0E0,8.603287E-1,0E0,5.5391693E-1,2.0448656E0,0E0,5.7525253E-1,1.13946766E-1,2.9208727E-2,7.6344204E-1,8.090648E-1,2.602539E-1,5.645752E-2,1.6606154E-1,2.8092651E0,1.939148E0,2.5316658E0,0E0,0E0,0E0,0E0,0E0,0E0,0E0,0E0,0E0,0E0,0E0,0E0,0E0,0E0,0E0,0E0,0E0,0E0,0E0,0E0,0E0,0E0,0E0,0E0,0E0,0E0,0E0,0E0,0E0,0E0,0E0,0E0,0E0,0E0,0E0,0E0,0E0,0E0,0E0,0E0],"parents":[2147483647,0,0,1,1,2,2,3,3,4,4,5,5,6,6,7,7,9,9,10,10,11,11,12,12,13,13,14,14,15,15,16,16,17,17,18,18,19,19,20,20,21,21,22,22,23,23,24,24,25,25,26,26,28,28,29,29,30,30,33,33,34,34,35,35,36,36,39,39,41,41,42,42,44,44,45,45,46,46,47,47,48,48,49,49,50,50,51,51,52,52,53,53,54,54],"right_children":[2,4,6,8,10,12,14,16,-1,18,20,22,24,26,28,30,32,34,36,38,40,42,44,46,48,50,52,-1,54,56,58,-1,-1,60,62,64,66,-1,-1,68,-1,70,72,-1,74,76,78,80,82,84,86,88,90,92,94,-1,-1,-1,-1,-1,-1,-1,-1,-1,-1,-1,-1,-1,-1,-1,-1,-1,-1,-1,-1,-1,-1,-1,-1,-1,-1,-1,-1,-1,-1,-1,-1,-1,-1,-1,-1,-1,-1,-1,-1],"split_conditions":[1.05E2,2.7072533E1,2.1E2,5.5E-1,2.130755E-1,3.568679E-1,1.2749704E1,4.8001015E-1,-2.680298E-1,1.8247261E0,1.5389345E0,1.2852893E1,1.2E2,-1.851234E-1,1.05098694E2,5.1662892E-2,9.383961E1,7.2782097E0,1.2422563E1,-5.2824415E-2,1.0055659E1,-1.9633007E-1,2.0162249E-1,1.3637321E1,1.05E2,7.295194E0,-1.8404454E-1,8.536006E-2,-1.1285487E-1,8.7466156E1,-1.3450505E-1,-2.1265614E-1,-5.3991813E-2,8.573667E1,1.6350359E-1,2.9283524E1,-1.3278799E-1,-8.295771E-2,-0E0,9.805271E1,-2.0721741E-2,1.2525897E-1,1.8E2,6.0633063E-2,-2.3723185E-1,7.983004E1,1.302438E-1,1.5636212E-1,1.6765553E-1,-2.5192693E-1,8.362616E1,1.415691E-1,1.5469722E-1,1.088324E-1,7.77026E1,-7.526647E-2,-1.394452E-1,-1.0390919E-1,-1.7638575E-1,-3.9421473E-2,-1.0367983E-1,-3.418317E-2,-8.26422E-2,-1.1034724E-2,-1.0864966E-1,-7.0283986E-3,1.5380688E-2,-1.6360585E-1,-4.8521183E-2,1.3760297E-1,1.796505E-2,2.200722E-2,7.252399E-2,1.5174599E-2,1.256972E-1,6.511708E-3,-1.8555524E-2,2.7658194E-2,-0E0,8.081876E-2,2.831471E-2,2.4594553E-2,-1.3725558E-2,8.524819E-3,8.890958E-2,1.676437E-1,4.0956613E-2,-2.148163E-2,1.9205399E-2,1.335941E-1,5.469988E-2,4.9387056E-2,1.9074987E-1,6.4505965E-2,1.581807E-1],"split_indices":[3,15,3,0,0,8,4,1,0,7,7,4,3,1,15,2,6,4,4,1,4,1,8,4,15,4,1,0,1,6,1,0,0,6,2,15,1,0,0,15,0,0,3,0,1,6,0,2,2,1,6,0,0,2,6,0,0,0,0,0,0,0,0,0,0,0,0,0,0,0,0,0,0,0,0,0,0,0,0,0,0,0,0,0,0,0,0,0,0,0,0,0,0,0,0],"split_type":[0,0,0,0,0,0,0,0,0,0,0,0,0,0,0,0,0,0,0,0,0,0,0,0,0,0,0,0,0,0,0,0,0,0,0,0,0,0,0,0,0,0,0,0,0,0,0,0,0,0,0,0,0,0,0,0,0,0,0,0,0,0,0,0,0,0,0,0,0,0,0,0,0,0,0,0,0,0,0,0,0,0,0,0,0,0,0,0,0,0,0,0,0,0,0],"sum_hessian":[1.06E3,4.8E2,5.8E2,3.34E2,1.46E2,1.28E2,4.52E2,2.87E2,4.7E1,1.15E2,3.1E1,7E1,5.8E1,2.8E2,1.72E2,2.3E2,5.7E1,6.8E1,4.7E1,4E0,2.7E1,4.5E1,2.5E1,1.3E1,4.5E1,7.8E1,2.02E2,5E0,1.67E2,2.9E1,2.01E2,5.6E1,1E0,8E0,6E1,4.3E1,4E0,3E0,1E0,2.6E1,1E0,5E0,4E1,6E0,1.9E1,1.1E1,2E0,1.5E1,3E1,5E0,7.3E1,2E0,2E2,1.38E2,2.9E1,1.2E1,1.7E1,1.3E1,1.88E2,3E0,5E0,5.2E1,8E0,2E0,4.1E1,3E0,1E0,2.4E1,2E0,4E0,1E0,1.4E1,2.6E1,1E0,1.8E1,1E0,1E1,1E0,1E0,6E0,9E0,2.4E1,6E0,1E0,4E0,7.2E1,1E0,1E0,1E0,1.93E2,7E0,2E0,1.36E2,6E0,2.3E1],"tree_param":{"num_deleted":"0","num_feature":"16","num_nodes":"95","size_leaf_vector":"1"}},{"base_weights":[7.549218E-3,-1.4427108E0,1.2054234E0,-1.6390164E0,-4.8516834E-1,4.911468E-1,1.39836E0,-1.4726144E0,-2.5298107E0,-6.540856E-1,-1.2643495E-1,7.920117E-2,6.5576303E-1,1.3143518E0,1.7483922E0,-1.2330555E0,-1.6402262E0,-2.929145E-1,-2.1889141E-1,-8.046953E-1,-2.2101775E-1,-5.7060257E-2,-9.497759E-2,-1.297918E-1,2.1640523E-1,1.0831231E0,5.531478E-1,1.1767399E0,1.5051271E0,1.8633944E0,1.2764658E0,-1.3453994E0,-1.0535564E0,-2.3017788E0,-1.5717536E0,-5.943383E-1,-1.0349106E0,3.8710136E-2,-2.9403245E-1,-3.0418378E-1,3.9642163E-2,-2.677873E-2,-3.8138304E-2,4.2461902E-1,-8.673462E-2,1.2144085E0,7.608363E-2,4.2418495E-1,8.163183E-1,1.20489E0,5.7771766E-1,1.82395E0,1.2821754E0,4.4401854E-2,1.8768613E0,7.1687347E-1,1.5149483E-1,-1.3926773E-1,-4.8200708E-2,-5.0155666E-2,-1.1269112E-1,-2.3780882E-1,-5.285675E-2,-1.4810036E-1,-1.9420661E-1,-1.6994482E-2,-7.896634E-2,-5.12151E-2,-1.1405454E-1,-1.673508E-2,-5.7556927E-2,-6.7196945E-3,-4.1293647E-2,8.35686E-3,-1.31955715E-2,1.2538186E-2,-1.6766226E-2,3.975525E-3,6.229039E-2,5.940445E-3,-2.1072809E-2,1.2483711E-2,1.2809265E-1,-7.1561052E-3,2.356865E-2,9.2867695E-2,3.4862887E-2,2.5128404E-2,9.537565E-2,1.6912405E-1,1.1610118E-1,8.309289E-3,6.0603876E-2,1.8726173E-1,2.4173431E-2,1.3045006E-1,1.4425354E-2,1.8899074E-1,4.7095794E-2,9.65864E-2,-0E0],"categories":[],"categories_nodes":[],"categories_segments":[],"categories_sizes":[],"default_left":[0,0,0,0,0,0,0,0,0,0,0,0,0,0,0,0,0,0,0,0,0,0,0,0,0,0,0,0,0,0,0,0,0,0,0,0,0,0,0,0,0,0,0,0,0,0,0,0,0,0,0,0,0,0,0,0,0,0,0,0,0,0,0,0,0,0,0,0,0,0,0,0,0,0,0,0,0,0,0,0,0,0,0,0,0,0,0,0,0,0,0,0,0,0,0,0,0,0,0,0,0],"id":17,"left_children":[1,3,5,7,9,11,13,15,17,19,21,23,25,27,29,31,33,-1,-1,35,37,39,-1,41,43,45,47,49,51,53,55,57,59,61,63,65,67,-1,69,71,73,75,-1,77,79,81,83,85,87,89,91,93,95,-1,97,99,-1,-1,-1,-1,-1,-1,-1,-1,-1,-1,-1,-1,-1,-1,-1,-1,-1,-1,-1,-1,-1,-1,-1,-1,-1,-1,-1,-1,-1,-1,-1,-1,-1,-1,-1,-1,-1,-1,-1,-1,-1,-1,-1,-1,-1],"loss_changes":[1.8397036E3,8.903046E1,7.905414E1,5.4721558E1,4.86874E0,8.351181E0,1.08046875E1,1.1221741E1,1.3805847E0,3.3721352E0,1.4444547E0,1.0977122E0,3.1402168E0,7.7267456E0,1.9205933E0,1.2263489E0,4.828003E0,0E0,0E0,1.20751E0,8.1493956E-1,6.8374354E-1,0E0,3.3772862E-1,1.5223292E0,1.8939075E0,2.0411835E0,2.8522644E0,8.155243E0,1.9613647E-1,1.3598518E0,2.5700684E0,1.7014465E0,6.17363E-1,2.8305664E0,1.7593136E0,2.4458694E-1,0E0,3.6436927E-1,1.3042223E-1,1.569423E-1,2.824929E-1,0E0,9.773476E-1,2.0885341E-1,7.141819E-1,1.0397206E-1,1.5306139E0,1.425951E0,2.232666E0,4.882908E-2,3.956009E0,2.029541E0,0E0,6.604004E-2,1.4860983E0,0E0,0E0,0E0,0E0,0E0,0E0,0E0,0E0,0E0,0E0,0E0,0E0,0E0,0E0,0E0,0E0,0E0,0E0,0E0,0E0,0E0,0E0,0E0,0E0,0E0,0E0,0E0,0E0,0E0,0E0,0E0,0E0,0E0,0E0,0E0,0E0,0E0,0E0,0E0,0E0,0E0,0E0,0E0,0E0,0E0],"parents":[2147483647,0,0,1,1,2,2,3,3,4,4,5,5,6,6,7,7,8,8,9,9,10,10,11,11,12,12,13,13,14,14,15,15,16,16,19,19,20,20,21,21,23,23,24,24,25,25,26,26,27,27,28,28,29,29,30,30,31,31,32,32,33,33,34,34,35,35,36,36,38,38,39,39,40,40,41,41,43,43,44,44,45,45,46,46,47,47,48,48,49,49,50,50,51,51,52,52,54,54,55,55],"right_children":[2,4,6,8,10,12,14,16,18,20,22,24,26,28,30,32,34,-1,-1,36,38,40,-1,42,44,46,48,50,52,54,56,58,60,62,64,66,68,-1,70,72,74,76,-1,78,80,82,84,86,88,90,92,94,96,-1,98,100,-1,-1,-1,-1,-1,-1,-1,-1,-1,-1,-1,-1,-1,-1,-1,-1,-1,-1,-1,-1,-1,-1,-1,-1,-1,-1,-1,-1,-1,-1,-1,-1,-1,-1,-1,-1,-1,-1,-1,-1,-1,-1,-1,-1,-1],"split_conditions":[1.05E2,4.5E1,2.5661974E1,2.7392817E-1,1.2749704E1,1.35E2,2.7098167E1,4.0149656E-1,2.2814537E1,2.4326311E1,-8.550211E-2,1.2003495E1,7.8956215E1,1.2586542E1,1.3431263E-1,2.3302101E1,2.2134064E1,-2.929145E-1,-2.1889141E-1,8.686477E1,1.02384076E-1,7.5E1,-9.497759E-2,8.493771E1,-1.3148926E-1,1.3431263E-1,2.5408493E1,-5.5024818E-2,7.880337E1,6.2986274E0,1.4373592E-1,6.2892857E1,5.2766677E-2,9.189528E1,6.4731486E-2,9.314977E1,-2.102929E-1,3.8710136E-2,1.1570126E1,1.32835455E1,8.877921E1,1.19579576E-1,-3.8138304E-2,1.2E2,1.2610177E1,8.098915E-2,1.3788606E-1,8.8088684E-2,7.993532E1,8.7135665E-2,7.572126E1,-6.9079354E-2,1.9435143E2,4.4401854E-2,8.4066345E1,7.8299904E1,1.5149483E-1,-1.3926773E-1,-4.8200708E-2,-5.0155666E-2,-1.1269112E-1,-2.3780882E-1,-5.285675E-2,-1.4810036E-1,-1.9420661E-1,-1.6994482E-2,-7.896634E-2,-5.12151E-2,-1.1405454E-1,-1.673508E-2,-5.7556927E-2,-6.7196945E-3,-4.1293647E-2,8.35686E-3,-1.31955715E-2,1.2538186E-2,-1.6766226E-2,3.975525E-3,6.229039E-2,5.940445E-3,-2.1072809E-2,1.2483711E-2,1.2809265E-1,-7.1561052E-3,2.356865E-2,9.2867695E-2,3.4862887E-2,2.5128404E-2,9.537565E-2,1.6912405E-1,1.1610118E-1,8.309289E-3,6.0603876E-2,1.8726173E-1,2.4173431E-2,1.3045006E-1,1.4425354E-2,1.8899074E-1,4.7095794E-2,9.65864E-2,-0E0],"split_indices":[3,3,5,0,4,3,5,1,5,5,1,4,6,4,0,5,5,0,0,6,0,3,0,6,1,0,5,1,6,4,0,15,0,6,0,15,1,0,4,4,6,0,0,3,4,0,0,0,6,0,6,1,15,0,6,6,0,0,0,0,0,0,0,0,0,0,0,0,0,0,0,0,0,0,0,0,0,0,0,0,0,0,0,0,0,0,0,0,0,0,0,0,0,0,0,0,0,0,0,0,0],"split_type":[0,0,0,0,0,0,0,0,0,0,0,0,0,0,0,0,0,0,0,0,0,0,0,0,0,0,0,0,0,0,0,0,0,0,0,0,0,0,0,0,0,0,0,0,0,0,0,0,0,0,0,0,0,0,0,0,0,0,0,0,0,0,0,0,0,0,0,0,0,0,0,0,0,0,0,0,0,0,0,0,0,0,0,0,0,0,0,0,0,0,0,0,0,0,0,0,0,0,0,0,0],"sum_hessian":[1.057E3,4.78E2,5.79E2,3.96E2,8.2E1,1.24E2,4.55E2,3.36E2,6E1,5.5E1,2.7E1,3.6E1,8.8E1,3.71E2,8.4E1,1.42E2,1.94E2,2.4E1,3.6E1,4E1,1.5E1,2.6E1,1E0,1.4E1,2.2E1,1.5E1,7.3E1,2.2E2,1.51E2,6.5E1,1.9E1,8.3E1,5.9E1,1.5E1,1.79E2,2.3E1,1.7E1,1E0,1.4E1,7E0,1.9E1,1.1E1,3E0,1.3E1,9E0,1.3E1,2E0,5.1E1,2.2E1,2.09E2,1.1E1,5.9E1,9.2E1,1E0,6.4E1,7E0,1.2E1,7.8E1,5E0,8E0,5.1E1,1.4E1,1E0,1.48E2,3.1E1,8E0,1.5E1,4E0,1.3E1,1.1E1,3E0,3E0,4E0,1.6E1,3E0,5E0,6E0,5E0,8E0,4E0,5E0,1E0,1.2E1,1E0,1E0,5E0,4.6E1,5E0,1.7E1,1.4E1,1.95E2,1E0,1E1,5.7E1,2E0,9E1,2E0,6.3E1,1E0,5E0,2E0],"tree_param":{"num_deleted":"0","num_feature":"16","num_nodes":"101","size_leaf_vector":"1"}},{"base_weights":[1.101955E-2,-1.2921245E0,1.0865368E0,-1.5632992E0,-7.259697E-1,4.0890494E-1,1.2478259E0,-1.3711201E0,-2.0392938E0,-1.0282533E0,-4.492311E-1,6.710269E-1,1.5992568E-1,1.1142375E0,1.4757787E0,-4.2963263E-2,-1.3848917E0,-2.142043E0,-1.4046855E0,-2.2690111E-1,-1.0800823E0,-5.612306E-1,-1.9361667E-1,8.1642425E-1,4.225687E-1,-4.4646156E-1,2.1206622E-1,8.9489657E-1,1.1833434E0,1.627385E0,1.2575575E0,-1.4135123E0,-8.249872E-1,-9.5492564E-2,-2.1754621E-1,-9.218903E-3,-1.4793727E0,-3.3486232E-2,-0E0,-1.0977273E0,2.7534675E-3,-6.3606745E-1,-2.0678078E-1,-2.582162E-1,3.9745152E-2,4.4947216E-1,9.91604E-1,4.4868442E-1,6.556905E-2,-4.991685E-2,-6.781693E-3,2.7875447E-1,1.7505432E-2,1.1656508E0,7.659279E-1,1.1968135E0,4.6432536E-2,2.3930308E-1,1.6525073E0,1.627587E0,1.0945543E0,-6.0823526E-2,-1.4250393E-1,-8.9062415E-2,-0E0,-5.6019034E-2,-1.6541524E-1,-9.056186E-2,-1.2512295E-1,-6.734844E-2,-3.110943E-3,-5.2847218E-2,7.6239585E-4,-3.3090878E-3,-3.3415236E-2,5.104941E-2,-9.139557E-3,-0E0,1.0407336E-1,5.4149266E-2,2.1768456E-2,-4.883956E-4,1.53237535E-2,-3.930588E-3,3.3563416E-2,4.3609735E-2,-3.2807186E-3,1.7277496E-1,9.899486E-2,2.1016236E-2,8.264165E-2,1.2151668E-1,6.1020344E-2,-1.9393157E-3,4.2834777E-2,1.6809885E-1,5.4507125E-2,1.09045975E-1,2.0993812E-1,1.11931756E-1,4.6780262E-2],"categories":[],"categories_nodes":[],"categories_segments":[],"categories_sizes":[],"default_left":[0,0,0,0,0,0,0,0,0,0,0,0,0,0,0,0,0,0,0,0,0,0,0,0,0,0,0,0,0,0,0,0,0,0,0,0,0,0,0,0,0,0,0,0,0,0,0,0,0,0,0,0,0,0,0,0,0,0,0,0,0,0,0,0,0,0,0,0,0,0,0,0,0,0,0,0,0,0,0,0,0,0,0,0,0,0,0,0,0,0,0,0,0,0,0,0,0,0,0,0,0],"id":18,"left_children":[1,3,5,7,9,11,13,15,17,19,21,23,25,27,29,-1,31,33,35,37,39,41,43,45,47,49,51,53,55,57,59,61,63,-1,-1,-1,65,-1,-1,67,-1,69,71,73,-1,75,77,79,81,-1,-1,83,85,87,89,91,-1,93,95,97,99,-1,-1,-1,-1,-1,-1,-1,-1,-1,-1,-1,-1,-1,-1,-1,-1,-1,-1,-1,-1,-1,-1,-1,-1,-1,-1,-1,-1,-1,-1,-1,-1,-1,-1,-1,-1,-1,-1,-1,-1],"loss_changes":[1.5220695E3,7.401788E1,6.435443E1,2.714148E1,1.2858551E1,7.3800907E0,1.2713501E1,2.3223572E0,2.7005615E0,2.7807617E0,2.2779198E0,1.5541134E0,1.9998988E0,3.3866577E0,3.4215088E0,0E0,2.375824E0,7.039795E-1,1.2748871E0,1.3962641E-1,1.5248642E0,1.3492165E0,1.1578215E0,1.5958004E0,1.3359118E-1,9.235382E-3,7.050643E-1,1.637703E0,1.5057678E0,2.8676758E0,2.5303192E0,9.906311E-1,7.832947E-1,0E0,0E0,0E0,1.2617455E0,0E0,0E0,7.1541595E-1,0E0,9.9510384E-1,8.8377994E-1,3.966918E-1,0E0,5.1762915E-1,1.113533E0,2.5642014E-1,3.4113288E-2,0E0,0E0,8.026545E-1,3.9160338E-1,2.893715E-1,1.6052399E0,1.4983826E0,0E0,1.9591792E-1,1.9206238E0,2.7134132E0,1.8681335E-1,0E0,0E0,0E0,0E0,0E0,0E0,0E0,0E0,0E0,0E0,0E0,0E0,0E0,0E0,0E0,0E0,0E0,0E0,0E0,0E0,0E0,0E0,0E0,0E0,0E0,0E0,0E0,0E0,0E0,0E0,0E0,0E0,0E0,0E0,0E0,0E0,0E0,0E0,0E0,0E0],"parents":[2147483647,0,0,1,1,2,2,3,3,4,4,5,5,6,6,7,7,8,8,9,9,10,10,11,11,12,12,13,13,14,14,16,16,17,17,18,18,19,19,20,20,21,21,22,22,23,23,24,24,25,25,26,26,27,27,28,28,29,29,30,30,31,31,32,32,36,36,39,39,41,41,42,42,43,43,45,45,46,46,47,47,48,48,51,51,52,52,53,53,54,54,55,55,57,57,58,58,59,59,60,60],"right_children":[2,4,6,8,10,12,14,16,18,20,22,24,26,28,30,-1,32,34,36,38,40,42,44,46,48,50,52,54,56,58,60,62,64,-1,-1,-1,66,-1,-1,68,-1,70,72,74,-1,76,78,80,82,-1,-1,84,86,88,90,92,-1,94,96,98,100,-1,-1,-1,-1,-1,-1,-1,-1,-1,-1,-1,-1,-1,-1,-1,-1,-1,-1,-1,-1,-1,-1,-1,-1,-1,-1,-1,-1,-1,-1,-1,-1,-1,-1,-1,-1,-1,-1,-1,-1],"split_conditions":[1.05E2,1.5E1,1.95E2,8.098915E-2,4.5E1,3.5889295E-1,1.2936153E1,4.1447394E-2,2.385784E-1,1.0752121E-1,1.2422563E1,1.2203399E-1,6.640127E0,8.891229E0,7.9545334E1,-4.2963263E-2,2.3506418E-1,8.534897E1,8.187124E-2,1.0142406E-1,9.032119E1,9E1,6.837237E-1,9.77461E0,8.501765E1,1.2785947E-1,1.6917122E2,7.7629715E1,1.2806827E1,1.05098694E2,1.369006E-1,8.5054276E1,9.276356E1,-9.5492564E-2,-2.1754621E-1,-9.218903E-3,2.4441397E-1,-3.3486232E-2,-0E0,2.0374356E-1,2.7534675E-3,7.386445E-1,5.346959E-1,1.3786864E-1,3.9745152E-2,9.730604E0,7.9012566E1,1.663101E-1,1.5807301E-1,-4.991685E-2,-6.781693E-3,8.1888115E1,5.745909E-2,1.1027039E-1,7.7933586E1,1.5469722E-1,4.6432536E-2,1.1112244E-1,1.5775001E-1,1.2893768E-1,1.2657802E2,-6.0823526E-2,-1.4250393E-1,-8.9062415E-2,-0E0,-5.6019034E-2,-1.6541524E-1,-9.056186E-2,-1.2512295E-1,-6.734844E-2,-3.110943E-3,-5.2847218E-2,7.6239585E-4,-3.3090878E-3,-3.3415236E-2,5.104941E-2,-9.139557E-3,-0E0,1.0407336E-1,5.4149266E-2,2.1768456E-2,-4.883956E-4,1.53237535E-2,-3.930588E-3,3.3563416E-2,4.3609735E-2,-3.2807186E-3,1.7277496E-1,9.899486E-2,2.1016236E-2,8.264165E-2,1.2151668E-1,6.1020344E-2,-1.9393157E-3,4.2834777E-2,1.6809885E-1,5.4507125E-2,1.09045975E-1,2.0993812E-1,1.11931756E-1,4.6780262E-2],"split_indices":[3,3,3,0,3,8,4,2,2,0,4,0,4,4,6,0,2,6,0,0,6,3,8,4,6,0,15,6,4,15,2,6,6,0,0,0,2,0,0,0,0,8,8,2,0,4,6,2,2,0,0,6,0,0,6,0,0,0,0,2,15,0,0,0,0,0,0,0,0,0,0,0,0,0,0,0,0,0,0,0,0,0,0,0,0,0,0,0,0,0,0,0,0,0,0,0,0,0,0,0,0],"split_type":[0,0,0,0,0,0,0,0,0,0,0,0,0,0,0,0,0,0,0,0,0,0,0,0,0,0,0,0,0,0,0,0,0,0,0,0,0,0,0,0,0,0,0,0,0,0,0,0,0,0,0,0,0,0,0,0,0,0,0,0,0,0,0,0,0,0,0,0,0,0,0,0,0,0,0,0,0,0,0,0,0,0,0,0,0,0,0,0,0,0,0,0,0,0,0,0,0,0,0,0,0],"sum_hessian":[1.084E3,4.9E2,5.94E2,3.3E2,1.6E2,1.15E2,4.79E2,2.38E2,9.2E1,7.5E1,8.5E1,5.5E1,6E1,3.06E2,1.73E2,4E0,2.34E2,7.7E1,1.5E1,5E0,7E1,5.8E1,2.7E1,3.3E1,2.2E1,4E0,5.6E1,7.7E1,2.29E2,9.8E1,7.5E1,2.21E2,1.3E1,3E0,7.4E1,1E0,1.4E1,3E0,2E0,6.9E1,1E0,4.7E1,1.1E1,2.5E1,2E0,1.2E1,2.1E1,2E1,2E0,3E0,1E0,4.1E1,1.5E1,2.2E1,5.5E1,2.24E2,5E0,2E0,9.6E1,2E1,5.5E1,4E0,2.17E2,1.2E1,1E0,3E0,1.1E1,3.4E1,3.5E1,4.4E1,3E0,4E0,7E0,7E0,1.8E1,1.1E1,1E0,1E0,2E1,1.3E1,7E0,1E0,1E0,6E0,3.5E1,1E0,1.4E1,3E0,1.9E1,6E0,4.9E1,2.16E2,8E0,1E0,1E0,9.3E1,3E0,1.1E1,9E0,5.2E1,3E0],"tree_param":{"num_deleted":"0","num_feature":"16","num_nodes":"101","size_leaf_vector":"1"}},{"base_weights":[-2.6417214E-2,-1.2655405E0,9.0741193E-1,-8.0399865E-1,-1.5216668E0,1.7560244E-1,1.0935882E0,-3.98257E-1,-1.0251354E0,-1.3160841E0,-2.0308895E0,-5.1656015E-2,4.1279817E-1,9.403017E-1,1.2956372E0,-5.0934446E-1,-1.6293527E-1,-7.7346873E-1,-1.2513058E0,-1.6266207E0,-1.1927508E0,-2.4733599E-1,-1.7668885E0,-2.4961986E-1,1.0647197E-1,9.332507E-1,3.261978E-1,1.3461964E0,8.7972736E-1,1.6523873E0,1.1531464E0,-0E0,-5.6587744E-1,5.6320444E-2,-3.0988652E-1,-1.457659E-1,-8.48372E-1,-1.4472146E0,-7.7353173E-1,-1.2707013E0,-1.7961652E0,-1.0687246E0,-1.4886161E0,-1.808449E0,-4.1035604E-2,-3.918278E-1,4.9757995E-2,2.1081872E-1,-1.11456424E-1,1.2142469E-1,3.236929E-2,7.6511934E-2,2.637544E-1,5.5407953E-1,1.5647678E0,9.0906584E-1,4.992158E-1,1.6746385E0,1.6428491E-2,9.93995E-1,1.3867313E0,1.0442365E-2,-1.0515354E-2,-6.5536425E-2,-1.5825324E-2,-1.882864E-2,2.266716E-2,1.704485E-2,-3.724518E-2,1.2134667E-2,-2.2717578E-2,-9.237233E-2,-2.7154684E-2,-0E0,-1.4900991E-1,-5.252036E-2,-1.1659874E-1,-1.3090517E-1,-1.826727E-2,-4.1909046E-2,-1.8206792E-1,-6.9239475E-2,-1.1560934E-1,-1.5106305E-1,-2.3200722E-2,-1.866929E-1,-8.536568E-2,2.1728821E-2,-4.405859E-2,-5.379532E-3,1.444261E-2,3.1750064E-2,-4.3067983E-3,-2.5430843E-2,1.2624795E-3,4.0622577E-2,1.1825182E-2,9.310481E-3,6.582002E-2,1.6204904E-1,5.640648E-2,2.69555E-2,9.248273E-2,3.4524553E-2,7.8427225E-2,1.7366412E-1,8.6217605E-2,1.02461495E-1,3.1549074E-3,1.5754694E-1,1.1402184E-1],"categories":[],"categories_nodes":[],"categories_segments":[],"categories_sizes":[],"default_left":[0,0,0,0,0,0,0,0,0,0,0,0,0,0,0,0,0,0,0,0,0,0,0,0,0,0,0,0,0,0,0,0,0,0,0,0,0,0,0,0,0,0,0,0,0,0,0,0,0,0,0,0,0,0,0,0,0,0,0,0,0,0,0,0,0,0,0,0,0,0,0,0,0,0,0,0,0,0,0,0,0,0,0,0,0,0,0,0,0,0,0,0,0,0,0,0,0,0,0,0,0,0,0,0,0,0,0,0,0,0,0],"id":19,"left_children":[1,3,5,7,9,11,13,15,17,19,21,23,25,27,29,31,33,35,37,39,41,-1,43,45,47,49,51,53,55,57,59,61,63,65,67,69,71,73,75,77,79,81,83,85,-1,87,89,91,93,-1,-1,-1,95,97,99,101,103,105,-1,107,109,-1,-1,-1,-1,-1,-1,-1,-1,-1,-1,-1,-1,-1,-1,-1,-1,-1,-1,-1,-1,-1,-1,-1,-1,-1,-1,-1,-1,-1,-1,-1,-1,-1,-1,-1,-1,-1,-1,-1,-1,-1,-1,-1,-1,-1,-1,-1,-1,-1,-1],"loss_changes":[1.2277415E3,5.2449097E1,8.210956E1,1.4253929E1,2.7561218E1,6.7416244E0,1.3486328E1,1.4182596E0,4.8631516E0,5.8591003E0,4.7844543E0,2.0443242E0,2.318985E0,5.4282684E0,8.234924E0,1.1505518E0,7.1942747E-1,2.2688198E0,3.7128677E0,8.505249E-1,3.8410645E0,0E0,2.1368103E0,1.288347E0,8.520776E-1,8.234296E-1,1.1753278E0,4.807663E0,2.140442E0,1.3952637E0,3.9598389E0,6.588469E-2,1.1280956E0,4.2153922E-1,4.7436404E-1,1.9036916E-1,1.6724739E0,2.4403152E0,9.727411E-1,5.2967453E-1,2.2827148E-1,2.730072E0,6.6477966E-1,1.0935364E0,0E0,7.120509E-1,1.1486448E-1,7.182456E-1,2.4008201E-1,0E0,0E0,0E0,9.1528296E-1,2.955606E-1,3.1728363E-1,1.909256E0,4.9408627E-1,1.013443E0,0E0,2.6027603E0,6.305771E-1,0E0,0E0,0E0,0E0,0E0,0E0,0E0,0E0,0E0,0E0,0E0,0E0,0E0,0E0,0E0,0E0,0E0,0E0,0E0,0E0,0E0,0E0,0E0,0E0,0E0,0E0,0E0,0E0,0E0,0E0,0E0,0E0,0E0,0E0,0E0,0E0,0E0,0E0,0E0,0E0,0E0,0E0,0E0,0E0,0E0,0E0,0E0,0E0,0E0,0E0],"parents":[2147483647,0,0,1,1,2,2,3,3,4,4,5,5,6,6,7,7,8,8,9,9,10,10,11,11,12,12,13,13,14,14,15,15,16,16,17,17,18,18,19,19,20,20,22,22,23,23,24,24,25,25,26,26,27,27,28,28,29,29,30,30,31,31,32,32,33,33,34,34,35,35,36,36,37,37,38,38,39,39,40,40,41,41,42,42,43,43,45,45,46,46,47,47,48,48,52,52,53,53,54,54,55,55,56,56,57,57,59,59,60,60],"right_children":[2,4,6,8,10,12,14,16,18,20,22,24,26,28,30,32,34,36,38,40,42,-1,44,46,48,50,52,54,56,58,60,62,64,66,68,70,72,74,76,78,80,82,84,86,-1,88,90,92,94,-1,-1,-1,96,98,100,102,104,106,-1,108,110,-1,-1,-1,-1,-1,-1,-1,-1,-1,-1,-1,-1,-1,-1,-1,-1,-1,-1,-1,-1,-1,-1,-1,-1,-1,-1,-1,-1,-1,-1,-1,-1,-1,-1,-1,-1,-1,-1,-1,-1,-1,-1,-1,-1,-1,-1,-1,-1,-1,-1],"split_conditions":[9E1,-2.8699823E-3,2.5408493E1,1.8115567E-2,5.044914E-3,1.35E2,2.667537E1,2.4004658E1,1.9643198E0,2.2539936E1,2.2814537E1,2.448295E1,-2.1216272E-1,1.392984E-2,-1.9279622E-1,1.3127687E0,-1.2723596E-1,8.554512E1,2.3548822E1,2.2790167E-3,2.4867117E0,-2.4733599E-1,1E0,1.326088E-1,1.2203399E-1,7.455921E-1,8.622179E-2,2.5884777E1,-8.237646E-2,1.0027088E0,2.7109116E1,-1.5393463E-1,8.930689E1,1.6327243E0,8.370212E-1,2.3203053E1,-4.8715573E-2,2.2178387E1,3.0083586E-2,5.4683678E-2,3.532957E-1,8.70753E1,9.276356E1,2.4004658E1,-4.1035604E-2,5.012614E-1,1.0373092E0,-1.3148926E-1,8.4874214E1,1.2142469E-1,3.236929E-2,7.6511934E-2,8.233937E1,7.766938E-2,2.6633394E1,1.8E2,8.005601E1,1.4625017E-1,1.6428491E-2,2.485666E-2,1.8646143E-2,1.0442365E-2,-1.0515354E-2,-6.5536425E-2,-1.5825324E-2,-1.882864E-2,2.266716E-2,1.704485E-2,-3.724518E-2,1.2134667E-2,-2.2717578E-2,-9.237233E-2,-2.7154684E-2,-0E0,-1.4900991E-1,-5.252036E-2,-1.1659874E-1,-1.3090517E-1,-1.826727E-2,-4.1909046E-2,-1.8206792E-1,-6.9239475E-2,-1.1560934E-1,-1.5106305E-1,-2.3200722E-2,-1.866929E-1,-8.536568E-2,2.1728821E-2,-4.405859E-2,-5.379532E-3,1.444261E-2,3.1750064E-2,-4.3067983E-3,-2.5430843E-2,1.2624795E-3,4.0622577E-2,1.1825182E-2,9.310481E-3,6.582002E-2,1.6204904E-1,5.640648E-2,2.69555E-2,9.248273E-2,3.4524553E-2,7.8427225E-2,1.7366412E-1,8.6217605E-2,1.02461495E-1,3.1549074E-3,1.5754694E-1,1.1402184E-1],"split_indices":[3,1,5,14,14,3,5,5,7,5,5,5,1,14,1,7,1,6,5,14,7,0,11,0,0,7,0,5,1,7,5,1,6,7,7,5,1,5,14,0,1,6,6,5,0,7,7,1,6,0,0,0,6,0,5,3,6,0,0,14,14,0,0,0,0,0,0,0,0,0,0,0,0,0,0,0,0,0,0,0,0,0,0,0,0,0,0,0,0,0,0,0,0,0,0,0,0,0,0,0,0,0,0,0,0,0,0,0,0,0,0],"split_type":[0,0,0,0,0,0,0,0,0,0,0,0,0,0,0,0,0,0,0,0,0,0,0,0,0,0,0,0,0,0,0,0,0,0,0,0,0,0,0,0,0,0,0,0,0,0,0,0,0,0,0,0,0,0,0,0,0,0,0,0,0,0,0,0,0,0,0,0,0,0,0,0,0,0,0,0,0,0,0,0,0,0,0,0,0,0,0,0,0,0,0,0,0,0,0,0,0,0,0,0,0,0,0,0,0,0,0,0,0,0,0],"sum_hessian":[1.059E3,4.55E2,6.04E2,1.64E2,2.91E2,1.23E2,4.81E2,5.9E1,1.05E2,2.1E2,8.1E1,6.3E1,6E1,2.77E2,2.04E2,3.9E1,2E1,5.2E1,5.3E1,5.6E1,1.54E2,2.7E1,5.4E1,2.8E1,3.5E1,7E0,5.3E1,3.3E1,2.44E2,5.5E1,1.49E2,4E0,3.5E1,8E0,1.2E1,6E0,4.6E1,3.6E1,1.7E1,2.1E1,3.5E1,1.12E2,4.2E1,5.2E1,2E0,1.9E1,9E0,2.4E1,1.1E1,4E0,3E0,5E0,4.8E1,8E0,2.5E1,2.25E2,1.9E1,5.4E1,1E0,9.2E1,5.7E1,2E0,2E0,2.8E1,7E0,3E0,5E0,1E0,1.1E1,1E0,5E0,4E1,6E0,1E0,3.5E1,1.2E1,5E0,2E1,1E0,1E0,3.4E1,2.3E1,8.9E1,4.1E1,1E0,4.8E1,4E0,1E0,1.8E1,4E0,5E0,1.7E1,7E0,5E0,6E0,2.3E1,2.5E1,2E0,6E0,2.3E1,2E0,6E0,2.19E2,1.4E1,5E0,4.9E1,5E0,8.9E1,3E0,2.9E1,2.8E1],"tree_param":{"num_deleted":"0","num_feature":"16","num_nodes":"111","size_leaf_vector":"1"}},{"base_weights":[-4.546551E-2,8.732609E-1,-1.1051943E0,4.225215E-1,1.0040525E0,-1.2518433E0,-4.274348E-1,6.532149E-2,5.321288E-1,9.2907697E-1,1.201221E0,-1.1209501E0,-1.8673884E0,-5.8346826E-1,-1.7787188E-1,-1.2781893E-1,1.891301E-1,4.132026E-1,7.534263E-1,1.3259583E0,8.6701894E-1,1.2155839E0,2.5041276E-1,-1.4443451E0,-1.02605E0,-2.2204724E-1,-1.6041081E0,-0E0,-6.319789E-1,-1.22973636E-1,-6.708293E-2,-2.0761913E-1,1.4745471E-1,3.0693012E-1,-4.2374257E-2,9.054363E-2,4.8538625E-1,8.654918E-1,1.2557131E-1,1.4099028E0,6.126128E-1,1.096298E0,7.869222E-1,1.253297E0,8.011051E-1,3.0787772E-2,1.7741394E-3,-6.9241697E-1,-1.5439273E0,-1.097915E0,-8.300214E-1,-9.126905E-2,-1.672008E-1,9.226342E-3,-5.959902E-3,-1.1361382E0,-5.56333E-1,-3.2394662E-2,-3.397427E-1,-2.692445E-2,-0E0,2.0642396E-2,-0E0,-1.5151948E-5,4.5453884E-2,-9.109573E-3,-0E0,-3.6504667E-2,1.6726337E-2,6.945606E-2,3.761591E-2,9.8132424E-2,1.6273087E-2,-6.983109E-3,1.98618E-2,1.625837E-1,9.781515E-2,1.7197762E-2,9.625887E-2,6.829142E-2,1.2129225E-1,8.248226E-2,1.1292255E-2,1.184439E-1,1.6748746E-1,1.16167955E-1,4.631079E-2,-9.630492E-2,-2.0706272E-3,-1.04565896E-1,-1.7644201E-1,-9.940363E-2,-1.3806228E-1,-1.8797522E-2,-8.957456E-2,-1.326205E-1,-1.3793583E-2,-4.474963E-2,-9.0666115E-2,-1.1248028E-2,2.7442673E-2,-5.3527582E-2,1.3492679E-3],"categories":[],"categories_nodes":[],"categories_segments":[],"categories_sizes":[],"default_left":[0,0,0,0,0,0,0,0,0,0,0,0,0,0,0,0,0,0,0,0,0,0,0,0,0,0,0,0,0,0,0,0,0,0,0,0,0,0,0,0,0,0,0,0,0,0,0,0,0,0,0,0,0,0,0,0,0,0,0,0,0,0,0,0,0,0,0,0,0,0,0,0,0,0,0,0,0,0,0,0,0,0,0,0,0,0,0,0,0,0,0,0,0,0,0,0,0,0,0,0,0,0,0],"id":20,"left_children":[1,3,5,7,9,11,13,15,17,19,21,23,25,27,29,31,33,35,37,39,41,43,45,47,49,-1,51,53,55,57,-1,59,61,63,65,67,69,71,73,75,77,79,81,83,85,-1,-1,87,89,91,93,-1,-1,-1,-1,95,97,99,101,-1,-1,-1,-1,-1,-1,-1,-1,-1,-1,-1,-1,-1,-1,-1,-1,-1,-1,-1,-1,-1,-1,-1,-1,-1,-1,-1,-1,-1,-1,-1,-1,-1,-1,-1,-1,-1,-1,-1,-1,-1,-1,-1,-1],"loss_changes":[9.706948E2,3.091397E1,4.5315857E1,4.682007E0,4.7762756E0,2.8224792E1,3.0910568E0,7.476789E-1,2.019598E0,6.1184998E0,1.0511932E0,7.969116E0,2.0980682E0,1.409483E0,7.5825036E-1,3.0023354E-1,5.5761474E-1,1.3657722E0,1.973402E0,1.2694016E0,3.8339233E0,4.78714E-1,2.0872802E-3,3.8739624E0,2.389618E0,0E0,1.4034271E-1,3.1233246E-2,9.911499E-1,5.800915E-1,0E0,1.488837E-1,1.9993022E-2,6.3477063E-1,1.23262545E-2,4.956667E-1,7.968855E-1,1.8423653E0,1.123894E-1,1.319107E0,6.462703E-1,2.164009E0,4.9476013E0,5.4611206E-1,7.620158E-1,0E0,0E0,1.6995492E0,4.465866E0,3.6175385E0,2.719307E0,0E0,0E0,0E0,0E0,6.192794E-1,1.0983849E0,6.0440046E-1,6.810236E-1,0E0,0E0,0E0,0E0,0E0,0E0,0E0,0E0,0E0,0E0,0E0,0E0,0E0,0E0,0E0,0E0,0E0,0E0,0E0,0E0,0E0,0E0,0E0,0E0,0E0,0E0,0E0,0E0,0E0,0E0,0E0,0E0,0E0,0E0,0E0,0E0,0E0,0E0,0E0,0E0,0E0,0E0,0E0,0E0],"parents":[2147483647,0,0,1,1,2,2,3,3,4,4,5,5,6,6,7,7,8,8,9,9,10,10,11,11,12,12,13,13,14,14,15,15,16,16,17,17,18,18,19,19,20,20,21,21,22,22,23,23,24,24,26,26,27,27,28,28,29,29,31,31,32,32,33,33,34,34,35,35,36,36,37,37,38,38,39,39,40,40,41,41,42,42,43,43,44,44,47,47,48,48,49,49,50,50,55,55,56,56,57,57,58,58],"right_children":[2,4,6,8,10,12,14,16,18,20,22,24,26,28,30,32,34,36,38,40,42,44,46,48,50,-1,52,54,56,58,-1,60,62,64,66,68,70,72,74,76,78,80,82,84,86,-1,-1,88,90,92,94,-1,-1,-1,-1,96,98,100,102,-1,-1,-1,-1,-1,-1,-1,-1,-1,-1,-1,-1,-1,-1,-1,-1,-1,-1,-1,-1,-1,-1,-1,-1,-1,-1,-1,-1,-1,-1,-1,-1,-1,-1,-1,-1,-1,-1,-1,-1,-1,-1,-1,-1],"split_conditions":[5.0696236E-1,2.576144E1,4.5E1,1.35E2,2.695269E1,3.7789416E-2,2.4183203E1,1.0800711E1,1.2610177E1,1.358267E-2,8.4066345E1,2.2522242E1,2.2814537E1,8.263115E1,1.7390068E-1,4.832593E-1,1.4125277E0,8.763031E1,3.588121E-1,1.5685123E-1,7.77026E1,2.2857135E-2,9.162794E-2,7.789922E-1,2.3352962E1,-2.2204724E-1,2.2956493E1,8.622179E-2,2.3051683E1,1.7633684E0,-6.708293E-2,1.629003E-1,1.1934852E-1,1.2E2,1.3446313E-1,9.309869E-2,1.1241697E2,2.035356E-2,9.979685E-2,8.042526E1,8.064268E1,1.3962676E-1,2.6876554E1,2.7444565E1,7.962878E1,3.0787772E-2,1.7741394E-3,1.1830126E-1,2.09886E0,2.4670463E0,5.1662892E-2,-9.126905E-2,-1.672008E-1,9.226342E-3,-5.959902E-3,1.6879213E-1,2.1614208E0,1.6327243E0,1.2354416E1,-2.692445E-2,-0E0,2.0642396E-2,-0E0,-1.5151948E-5,4.5453884E-2,-9.109573E-3,-0E0,-3.6504667E-2,1.6726337E-2,6.945606E-2,3.761591E-2,9.8132424E-2,1.6273087E-2,-6.983109E-3,1.98618E-2,1.625837E-1,9.781515E-2,1.7197762E-2,9.625887E-2,6.829142E-2,1.2129225E-1,8.248226E-2,1.1292255E-2,1.184439E-1,1.6748746E-1,1.16167955E-1,4.631079E-2,-9.630492E-2,-2.0706272E-3,-1.04565896E-1,-1.7644201E-1,-9.940363E-2,-1.3806228E-1,-1.8797522E-2,-8.957456E-2,-1.326205E-1,-1.3793583E-2,-4.474963E-2,-9.0666115E-2,-1.1248028E-2,2.7442673E-2,-5.3527582E-2,1.3492679E-3],"split_indices":[8,5,3,3,5,14,5,4,4,14,6,5,5,6,2,8,7,15,8,2,6,14,0,8,5,0,5,0,5,7,0,2,0,3,2,0,15,14,0,6,6,2,5,5,6,0,0,2,7,7,2,0,0,0,0,0,7,7,4,0,0,0,0,0,0,0,0,0,0,0,0,0,0,0,0,0,0,0,0,0,0,0,0,0,0,0,0,0,0,0,0,0,0,0,0,0,0,0,0,0,0,0,0],"split_type":[0,0,0,0,0,0,0,0,0,0,0,0,0,0,0,0,0,0,0,0,0,0,0,0,0,0,0,0,0,0,0,0,0,0,0,0,0,0,0,0,0,0,0,0,0,0,0,0,0,0,0,0,0,0,0,0,0,0,0,0,0,0,0,0,0,0,0,0,0,0,0,0,0,0,0,0,0,0,0,0,0,0,0,0,0,0,0,0,0,0,0,0,0,0,0,0,0,0,0,0,0,0,0],"sum_hessian":[9.95E2,5.33E2,4.62E2,1.21E2,4.12E2,3.79E2,8.3E1,2.9E1,9.2E1,3.03E2,1.09E2,3.15E2,6.4E1,5E1,3.3E1,1.1E1,1.8E1,6.2E1,3E1,3.8E1,2.65E2,1.07E2,2E0,6.8E1,2.47E2,2.4E1,4E1,4E0,4.6E1,3.1E1,2E0,9E0,2E0,1.2E1,6E0,1.2E1,5E1,2.5E1,5E0,3.3E1,5E0,6.5E1,2E2,9.6E1,1.1E1,1E0,1E0,9E0,5.9E1,1.77E2,7E1,5E0,3.5E1,1E0,3E0,4E0,4.2E1,2.3E1,8E0,7E0,2E0,1E0,1E0,4E0,8E0,2E0,4E0,1E0,1.1E1,1.5E1,3.5E1,2.1E1,4E0,1E0,4E0,2E1,1.3E1,3E0,2E0,1.6E1,4.9E1,1.89E2,1.1E1,8.6E1,1E1,4E0,7E0,6E0,3E0,2E1,3.9E1,1.33E2,4.4E1,7E0,6.3E1,3E0,1E0,3.4E1,8E0,1.9E1,4E0,5E0,3E0],"tree_param":{"num_deleted":"0","num_feature":"16","num_nodes":"103","size_leaf_vector":"1"}},{"base_weights":[-3.9753113E-3,-1.0269672E0,7.842393E-1,-9.0703344E-1,-1.722226E0,2.533503E-1,9.552785E-1,-4.503055E-1,-1.0133561E0,-2.2609472E-1,-1.5317829E0,4.7134396E-1,1.0318011E-1,8.8711846E-1,1.2307066E0,-6.101866E-1,-1.9531079E-1,-1.5489229E0,-9.6385944E-1,-6.323155E-2,-1.5914819E0,5.671954E-1,1.7204347E-1,1.2148017E-1,-4.2248167E-2,1.1089604E0,7.957896E-1,1.2417035E0,9.798546E-3,-9.80705E-1,-4.4762993E-1,2.5305405E-2,-2.9125857E-1,-9.3600824E-2,-1.6879481E0,-1.4680932E-1,-9.7718734E-1,-1.6344605E-1,-6.851021E-2,7.0383435E-1,3.451003E-1,-4.700385E-3,3.6187488E-1,9.074495E-2,4.4109976E-1,1.5064745E0,9.875668E-1,6.1338377E-1,8.975931E-1,9.524407E-1,1.3320358E0,-1.296681E-1,-5.1034253E-2,-2.730212E-6,-5.3997237E-2,-1.4904569E-2,2.4946565E-2,-3.258471E-2,1.6755028E-2,-9.155347E-2,-1.8262228E-1,-4.0902864E-2,2.1841953E-2,-3.334263E-2,-9.916817E-2,1.9667536E-2,8.104591E-2,4.2378824E-2,-3.0926324E-3,1.8639572E-2,-2.1485642E-2,-1.7707901E-2,5.8770597E-2,1.2425129E-2,-1.2163582E-2,4.9263738E-2,1.5937042E-3,1.6138066E-1,2.5543544E-2,3.8041558E-2,1.0291785E-1,-0E0,6.766906E-2,9.615096E-2,3.1663593E-2,1.1036116E-1,4.9964745E-2,1.394136E-1,7.260927E-2],"categories":[],"categories_nodes":[],"categories_segments":[],"categories_sizes":[],"default_left":[0,0,0,0,0,0,0,0,0,0,0,0,0,0,0,0,0,0,0,0,0,0,0,0,0,0,0,0,0,0,0,0,0,0,0,0,0,0,0,0,0,0,0,0,0,0,0,0,0,0,0,0,0,0,0,0,0,0,0,0,0,0,0,0,0,0,0,0,0,0,0,0,0,0,0,0,0,0,0,0,0,0,0,0,0,0,0,0,0],"id":21,"left_children":[1,3,5,7,9,11,13,15,17,-1,19,21,23,25,27,29,31,33,35,-1,37,39,41,43,-1,45,47,49,-1,51,53,55,57,-1,59,61,63,-1,-1,65,67,69,71,73,75,77,79,81,83,85,87,-1,-1,-1,-1,-1,-1,-1,-1,-1,-1,-1,-1,-1,-1,-1,-1,-1,-1,-1,-1,-1,-1,-1,-1,-1,-1,-1,-1,-1,-1,-1,-1,-1,-1,-1,-1,-1,-1],"loss_changes":[8.4667737E2,3.628189E1,5.3483185E1,1.8433014E1,2.928772E0,4.6733913E0,7.106842E0,2.8987055E0,6.659088E0,0E0,1.5635605E0,1.5211086E0,8.6775154E-1,6.281616E0,8.156128E-1,2.1887646E0,6.901623E-1,2.8793716E-1,2.934784E0,0E0,5.1810455E-1,9.874754E-1,5.742429E-1,7.5161564E-1,0E0,3.2331848E0,4.1449738E0,7.238922E-1,0E0,1.0896482E0,1.3512983E0,4.380496E-1,4.1955495E-1,0E0,8.314896E-2,6.83021E-1,2.224121E0,0E0,0E0,1.1458559E0,6.145785E-1,4.0433437E-1,1.1188337E0,5.846631E-1,9.467447E-2,2.3549461E0,1.5392303E0,3.8008423E0,5.694641E0,9.310379E-1,1.1087112E0,0E0,0E0,0E0,0E0,0E0,0E0,0E0,0E0,0E0,0E0,0E0,0E0,0E0,0E0,0E0,0E0,0E0,0E0,0E0,0E0,0E0,0E0,0E0,0E0,0E0,0E0,0E0,0E0,0E0,0E0,0E0,0E0,0E0,0E0,0E0,0E0,0E0,0E0],"parents":[2147483647,0,0,1,1,2,2,3,3,4,4,5,5,6,6,7,7,8,8,10,10,11,11,12,12,13,13,14,14,15,15,16,16,17,17,18,18,20,20,21,21,22,22,23,23,25,25,26,26,27,27,29,29,30,30,31,31,32,32,34,34,35,35,36,36,39,39,40,40,41,41,42,42,43,43,44,44,45,45,46,46,47,47,48,48,49,49,50,50],"right_children":[2,4,6,8,10,12,14,16,18,-1,20,22,24,26,28,30,32,34,36,-1,38,40,42,44,-1,46,48,50,-1,52,54,56,58,-1,60,62,64,-1,-1,66,68,70,72,74,76,78,80,82,84,86,88,-1,-1,-1,-1,-1,-1,-1,-1,-1,-1,-1,-1,-1,-1,-1,-1,-1,-1,-1,-1,-1,-1,-1,-1,-1,-1,-1,-1,-1,-1,-1,-1,-1,-1,-1,-1,-1,-1],"split_conditions":[9E1,3.7789416E-2,2.5661974E1,7.4195844E-1,2.2709566E1,2.9682696E-1,2.7098167E1,2.3863686E1,2.22347E1,-2.2609472E-1,1.7287136E0,2.0300396E-2,2.0904584E0,1.5636597E-2,1.0027088E0,1.1604925E-1,8.687476E0,2.0904584E0,-1.8064158E-1,-6.323155E-2,2.4004658E1,-1.4211547E-1,-1.3339251E-1,2.5355549E1,-4.2248167E-2,-1.9279622E-1,1.0502818E1,1.0161458E1,9.798546E-3,7.0949924E-1,1.2922285E-1,7.4539905E0,6.979934E-1,-9.3600824E-2,8.140122E-1,-1.9023709E-1,9.816326E-3,-1.6344605E-1,-6.851021E-2,7.982549E0,1.2073842E-1,2.5389748E1,2.0564675E-2,-9.5006384E-2,1.65E2,2.70382E1,8.776853E0,1.0299173E-1,-8.237646E-2,1.3567935E-1,-9.045732E-2,-1.296681E-1,-5.1034253E-2,-2.730212E-6,-5.3997237E-2,-1.4904569E-2,2.4946565E-2,-3.258471E-2,1.6755028E-2,-9.155347E-2,-1.8262228E-1,-4.0902864E-2,2.1841953E-2,-3.334263E-2,-9.916817E-2,1.9667536E-2,8.104591E-2,4.2378824E-2,-3.0926324E-3,1.8639572E-2,-2.1485642E-2,-1.7707901E-2,5.8770597E-2,1.2425129E-2,-1.2163582E-2,4.9263738E-2,1.5937042E-3,1.6138066E-1,2.5543544E-2,3.8041558E-2,1.0291785E-1,-0E0,6.766906E-2,9.615096E-2,3.1663593E-2,1.1036116E-1,4.9964745E-2,1.394136E-1,7.260927E-2],"split_indices":[3,14,5,8,5,8,5,5,5,0,7,14,7,14,7,2,4,7,1,0,5,1,1,5,0,1,4,4,0,8,2,4,8,0,8,1,0,0,0,4,0,5,14,1,3,5,4,0,1,0,1,0,0,0,0,0,0,0,0,0,0,0,0,0,0,0,0,0,0,0,0,0,0,0,0,0,0,0,0,0,0,0,0,0,0,0,0,0,0],